tree
version=v3
num_class=1
num_tree_per_iteration=1
label_index=0
max_feature_idx=2
objective=regression
feature_names=Column_0 Column_1 Column_2
feature_infos=[0:99] [-10:19] [0:9.9000000000000004]
tree_sizes=2823 2909 2923 2919 2923 2924 2916 2934 2959 2959 2953 2940 2953 2949 2942 2937 2943 2946 2952 2958 2961 2972 2969 2970 2973 2983 3001 2985 2992 2994 2986 3017 2997 3016 3003 2994 3007 3004 2991 3003 3004 2996 3017 3010 3014 3021 3013 3027 3020 3009 3025 3022 3030 3027 3013 3017 3016 3027 3011 3026 3022 3032 3029 3013 3031 3017 3010 3015 3032 2997 2998 3022 3012 3004 3018 3011 2999 2997 3041 3008 2999 2977 3015 2991 2992 2964 3025 3019 2992 2999 2992 2937 2981 2971 2970 2965 3027 2978 2947 2969

Tree=0
num_leaves=31
num_cat=0
split_feature=0 0 0 0 0 0 0 2 2 2 2 2 2 2 2 0 0 0 0 0 0 0 0 0 0 0 0 0 0 0
split_gain=1.35236e+07 1.68755e+06 1.68648e+06 211145 210707 210445 210427 48947.2 48731.1 48570.9 48228.5 45136.8 45102.3 44764.9 44629.7 15306.6 15188.6 15185.6 14921.1 14870.5 14301.7 14219.4 14194.8 11805 11802.3 11759.7 11748.7 11734.3 11515.7 11267.4
threshold=49.500000000000007 74.500000000000014 24.500000000000004 12.500000000000002 86.500000000000014 62.500000000000007 36.500000000000007 5.1500000000000012 4.7500000000000009 4.9500000000000011 5.1500000000000012 4.9500000000000011 4.8500000000000005 4.8500000000000005 5.0500000000000007 93.500000000000014 6.5000000000000009 42.500000000000007 56.500000000000007 55.500000000000007 43.500000000000007 5.5000000000000009 92.500000000000014 80.500000000000014 68.500000000000014 18.500000000000004 30.500000000000004 68.500000000000014 30.500000000000004 18.500000000000004
decision_type=2 2 2 2 2 2 2 2 2 2 2 2 2 2 2 2 2 2 2 2 2 2 2 2 2 2 2 2 2 2
left_child=2 5 3 10 12 9 13 17 22 19 16 27 -3 28 25 -10 -1 -8 -11 -2 -9 -12 -6 -14 -13 -5 -15 -7 -4 -16
right_child=1 4 6 14 8 11 7 20 15 18 21 24 23 26 29 -17 -18 -19 -20 -21 -22 -23 -24 -25 -26 -27 -28 -29 -30 -31
leaf_value=101.55002315705556 103.03903112727636 103.88228926696723 102.29162146127619 101.92743866733632 104.1548202251787 103.42924266406553 102.64538964921699 102.40880496032877 103.91977179229676 102.80397609486003 101.285481097624 103.17893791838404 103.54196776742259 102.04206208640242 101.67805810568744 104.11452741296556 101.74405301250907 102.83967327274308 103.00036213166749 103.23477422002756 102.60453873210221 101.48052903700687 104.34981517198699 103.72161112171969 103.36022273337073 102.10632810320756 102.22111181276455 103.609373680822 102.47285239484714 101.85685826324872
leaf_weight=8772 7188 14130 7056 7346 6938 7203 7483 8085 8728 8338 6924 7194 7315 7315 7015 7506 7470 8701 7218 8436 6935 8122 8082 7317 7171 7353 7344 7263 6969 7083
leaf_count=8772 7188 14130 7056 7346 6938 7203 7483 8085 8728 8338 6924 7194 7315 7315 7015 7506 7470 8701 7218 8436 6935 8122 8082 7317 7171 7353 7344 7263 6969 7083
internal_value=102.825 103.575 102.074 101.7 103.95 103.2 102.449 102.629 104.13 103.02 101.52 103.395 103.755 102.254 101.895 104.01 101.639 102.75 102.895 103.145 102.499 101.391 104.26 103.632 103.269 102.017 102.132 103.52 102.382 101.768
internal_weight=0 120027 119973 60085 60016 60011 59888 31204 31254 31180 31288 28831 28762 28684 28797 16234 16242 16184 15556 15624 15020 15046 15020 14632 14365 14699 14659 14466 14025 14098
internal_count=240000 120027 119973 60085 60016 60011 59888 31204 31254 31180 31288 28831 28762 28684 28797 16234 16242 16184 15556 15624 15020 15046 15020 14632 14365 14699 14659 14466 14025 14098
is_linear=0
shrinkage=1


Tree=1
num_leaves=31
num_cat=0
split_feature=0 0 0 0 0 0 0 2 2 2 2 2 2 2 2 0 0 0 0 0 0 0 0 0 0 0 0 0 0 0
split_gain=1.0955e+07 1.45059e+06 1.28769e+06 192463 171387 170378 151374 42880.6 40083.6 39854.3 37467.2 37132.8 37118.4 36837.7 36687.1 16221.2 13288.9 13103.2 12971.9 11540.9 11025.7 10909.5 10727.8 10316.9 10302 10258.3 8643.06 8595.9 8576.28 8503.51
threshold=50.500000000000007 25.500000000000004 75.500000000000014 11.500000000000002 38.500000000000007 63.500000000000007 87.500000000000014 4.4500000000000011 5.4500000000000011 4.4500000000000011 5.3500000000000005 5.3500000000000005 4.4500000000000011 4.2500000000000009 4.4500000000000011 17.500000000000004 19.500000000000004 32.500000000000007 57.500000000000007 81.500000000000014 57.500000000000007 69.500000000000014 32.500000000000007 94.500000000000014 5.5000000000000009 44.500000000000007 81.500000000000014 44.500000000000007 4.5000000000000009 92.500000000000014
decision_type=2 2 2 2 2 2 2 2 2 2 2 2 2 2 2 2 2 2 2 2 2 2 2 2 2 2 2 2 2 2
left_child=1 3 5 14 8 9 10 16 17 20 19 23 27 -7 28 -9 -5 -3 -11 -4 -2 -15 -10 -8 -16 -14 -12 -6 -1 -13
right_child=2 4 6 7 12 13 11 15 22 18 26 29 25 21 24 -17 -18 -19 -20 -21 -22 -23 -24 -25 -26 -27 -28 -29 -30 -31
leaf_value=-1.1598562003725335 0.24549013144183221 -0.45133149005338197 0.88320557989710213 -0.7934239074247047 -0.09032242889065184 0.66978222721271863 1.2251900347617779 -1.0476327215233154 -0.67984643749868967 0.019551579740087501 0.65979653307359443 0.97071551744764539 -0.31773502176848606 0.36007677642134078 -1.3711615619902262 -0.85826928571518379 -0.60439912133055973 -0.27542228034626381 0.19413031607325404 1.0554368337238944 0.42309604661358169 0.52321795855704334 -0.50443964679026443 1.3904214890596207 -1.2101937077213241 -0.15704234325819486 0.82159678143437598 0.072906354028038509 -0.99481432258877212 1.1333545134820906
leaf_weight=5407 7544 9198 7730 8658 6455 12464 9103 7887 7528 9175 6588 5487 7911 8193 7933 10608 6520 7847 7939 7833 6513 8203 6495 6461 7971 7980 6618 6450 7538 7763
leaf_count=5407 7544 9198 7730 8658 6455 12464 9103 7887 7528 9175 6588 5487 7911 8193 7933 10608 6520 7847 7939 7833 6513 8203 6495 6461 7971 7980 6618 6450 7538 7763
internal_value=0 -0.662313 0.689186 -0.999192 -0.310477 0.365118 1.02703 -0.836793 -0.473375 0.203015 0.864767 1.18904 -0.134727 0.540202 -1.18875 -0.939021 -0.712225 -0.370348 0.100537 0.969891 0.32778 0.441697 -0.598604 1.29378 -1.29049 -0.23704 0.74088 -0.00873966 -1.06375 1.066
internal_weight=0 122386 117614 62522 59864 60031 57583 33673 31068 31171 28769 28814 28796 28860 28849 18495 15178 17045 17114 15563 14057 16396 14023 15564 15904 15891 13206 12905 12945 13250
internal_count=240000 122386 117614 62522 59864 60031 57583 33673 31068 31171 28769 28814 28796 28860 28849 18495 15178 17045 17114 15563 14057 16396 14023 15564 15904 15891 13206 12905 12945 13250
is_linear=0
shrinkage=0.1


Tree=2
num_leaves=31
num_cat=0
split_feature=0 0 0 0 0 0 0 2 2 2 2 2 2 2 2 0 0 0 0 0 1 1 1 1 0 0 0 0 1 1
split_gain=8.8794e+06 1.17888e+06 1.04531e+06 156228 138469 137996 122891 36156.2 33917.1 33402.3 33190.8 31013.4 30995.5 30542.9 28070.3 14252.1 11794.6 11434.4 11302.1 10311.6 9581.38 9392.87 9270.85 8445.41 8388.8 8351.17 8241.09 6975.97 6960.47 6834.41
threshold=48.500000000000007 73.500000000000014 23.500000000000004 85.500000000000014 60.500000000000007 35.500000000000007 10.500000000000002 4.1500000000000012 5.7500000000000009 5.6500000000000012 5.7500000000000009 3.9500000000000006 5.7500000000000009 4.2500000000000009 5.6500000000000012 91.500000000000014 67.500000000000014 41.500000000000007 16.500000000000004 91.500000000000014 4.5000000000000009 4.5000000000000009 4.5000000000000009 4.5000000000000009 41.500000000000007 66.500000000000014 16.500000000000004 79.500000000000014 4.5000000000000009 4.5000000000000009
decision_type=2 2 2 2 2 2 2 2 2 2 2 2 2 2 2 2 2 2 2 2 2 2 2 2 2 2 2 2 2 2
left_child=2 4 6 11 12 13 14 19 16 18 17 27 21 29 23 -9 -6 -7 -8 -5 -13 -2 -15 -1 -12 -10 -11 -3 -14 -4
right_child=1 3 5 7 8 10 9 15 25 26 24 20 28 22 -16 -17 -18 -19 -20 -21 -22 -23 -24 -25 -26 -27 -28 -29 -30 -31
leaf_value=-1.0685087369891129 0.13434886553638631 0.77846513928642869 -0.4418235593526163 1.0697457454939061 0.43891053367570354 -0.18029339735541469 -0.78653655643151987 0.85921332740164802 0.21722991686237991 -0.9937923130147237 -0.39010548916801857 0.57008414515779271 -0.077864998960897061 -0.6509764324207743 -1.2014878677736249 1.0320821313244328 0.60060961157282389 -0.020683364663607942 -0.62674734046558545 1.2421900462208115 0.71923283955108164 0.28438319663529271 -0.50039602605918554 -0.91864786275270061 -0.2299187409194198 0.37707421875142505 -0.83662405658680672 0.93392451133297927 0.074386327257820795 -0.29293970616268589
leaf_weight=7507 8375 5781 6183 6070 9754 8354 8214 8321 6111 6208 6034 8658 5991 8212 11400 11173 8392 9700 9600 8088 8571 8316 8143 7535 7135 7027 7212 5765 6020 6150
leaf_count=7507 8375 5781 6183 6070 9754 8354 8214 8321 6111 6208 6034 8658 5991 8212 11400 11173 8392 9700 9600 8088 8571 8316 8143 7535 7135 7027 7212 5765 6020 6150
internal_value=0 0.596145 -0.620612 0.900346 0.279566 -0.328071 -0.924489 1.04663 0.425094 -0.790183 -0.182595 0.729269 0.120947 -0.486403 -1.08314 0.958293 0.513692 -0.0945386 -0.700426 1.16826 0.644282 0.209101 -0.576004 -0.993439 -0.303316 0.302724 -0.909329 0.856087 -0.00155553 -0.367581
internal_weight=0 122413 117587 62427 59986 59911 57676 33652 31284 31234 31223 28775 28702 28688 26442 19494 18146 18054 17814 14158 17229 16691 16355 15042 13169 13138 13420 11546 12011 12333
internal_count=240000 122413 117587 62427 59986 59911 57676 33652 31284 31234 31223 28775 28702 28688 26442 19494 18146 18054 17814 14158 17229 16691 16355 15042 13169 13138 13420 11546 12011 12333
is_linear=0
shrinkage=0.1


Tree=3
num_leaves=31
num_cat=0
split_feature=0 0 0 0 0 0 0 2 2 2 2 2 2 2 2 0 1 0 1 1 1 1 1 0 1 1 0 1 1 0
split_gain=7.20283e+06 1.01346e+06 797773 141775 109685 108666 87528.9 29821.6 28005.7 27892.8 27611.7 26296.7 26192 26166.3 24305.7 13116.9 10199.2 9877.36 9539.64 9318.62 9267.21 9140.73 9097.86 8984.59 6888.42 6496.47 6334.02 6182.07 5817.19 5766.48
threshold=51.500000000000007 26.500000000000004 76.500000000000014 13.500000000000002 64.500000000000014 39.500000000000007 88.500000000000014 4.0500000000000007 3.6500000000000008 3.8500000000000001 6.0500000000000007 6.0500000000000007 3.9500000000000006 5.5500000000000007 6.0500000000000007 6.5000000000000009 5.5000000000000009 58.500000000000007 3.5000000000000004 4.5000000000000009 4.5000000000000009 4.5000000000000009 4.5000000000000009 5.5000000000000009 4.5000000000000009 5.5000000000000009 33.500000000000007 4.5000000000000009 5.5000000000000009 58.500000000000007
decision_type=2 2 2 2 2 2 2 2 2 2 2 2 2 2 2 2 2 2 2 2 2 2 2 2 2 2 2 2 2 2
left_child=1 3 4 7 8 9 11 23 29 26 16 19 27 21 22 -9 -5 -10 -11 -4 -14 -6 -8 -1 -15 -12 -3 -7 -16 -2
right_child=2 5 6 10 13 12 14 15 17 18 25 -13 20 24 28 -17 -18 -19 -20 -21 -22 -23 -24 -25 -26 -27 -28 -29 -30 -31
leaf_value=-0.9222537407012843 0.24556955216201068 -0.30772556933404371 0.72747748949821445 -0.63994472486029053 0.46741488720931584 -0.046195532093347674 0.9772834498771561 -1.1022441324660959 0.049696944472526976 -0.51046837470829853 -0.83292604973866391 0.60361481433452158 -0.24056966714348071 0.2769461216356327 0.78630287968153989 -0.93984069538939752 -0.49350907333132255 0.1918614977379183 -0.36838964203412305 0.87305745725601214 -0.094160144011836533 0.61766564550736269 1.1275538794730429 -0.7589667221431432 0.42445609298345605 -0.68638435111152862 -0.16259238162692735 0.10053309296546792 0.93688370610121052 0.38726439493967724
leaf_weight=5923 6164 6508 8832 10249 8090 5724 8031 9931 10581 8893 6500 11144 8650 6329 5535 9962 8875 9082 10085 8756 8643 8106 8085 7817 6334 5659 5590 5762 4782 5378
leaf_count=5923 6164 6508 8832 10249 8090 5724 8031 9931 10581 8893 6500 11144 8650 6329 5535 9962 8875 9082 10085 8756 8643 8106 8085 7817 6334 5659 5590 5762 4782 5378
internal_value=0 -0.526466 0.570062 -0.800132 0.317898 -0.22966 0.84462 -0.942658 0.187942 -0.359325 -0.646899 0.723801 -0.0896454 0.458418 0.975947 -1.02092 -0.571987 0.11536 -0.434967 0.799953 -0.167395 0.542614 1.05267 -0.829356 0.35073 -0.764723 -0.240665 0.0274115 0.856098 0.311592
internal_weight=0 124771 115229 64916 60064 59855 55165 33633 31205 31076 31283 28732 28779 28859 26433 19893 19124 19663 18978 17588 17293 16196 16116 13740 12663 12159 12098 11486 10317 11542
internal_count=240000 124771 115229 64916 60064 59855 55165 33633 31205 31076 31283 28732 28779 28859 26433 19893 19124 19663 18978 17588 17293 16196 16116 13740 12663 12159 12098 11486 10317 11542
is_linear=0
shrinkage=0.1


Tree=4
num_leaves=31
num_cat=0
split_feature=0 0 0 0 0 0 0 2 2 2 2 2 2 2 2 0 1 1 1 1 0 1 1 1 1 1 1 1 1 1
split_gain=5.84131e+06 824331 650407 117259 89875.8 87578.8 71356.2 27751.3 24153.3 23377.1 23315.3 22616.6 22308.4 22161.6 18176.4 13271.2 9955.63 9712.01 9593.86 8102.1 7683.04 7670.4 7620.44 7126.23 6578.08 5614.76 5517.27 5263.97 4938.2 4864.89
threshold=47.500000000000007 72.500000000000014 22.500000000000004 84.500000000000014 34.500000000000007 59.500000000000007 9.5000000000000018 3.5500000000000003 3.6500000000000008 6.3500000000000005 6.3500000000000005 6.3500000000000005 6.3500000000000005 3.6500000000000008 6.2500000000000009 93.500000000000014 3.5000000000000004 5.5000000000000009 4.5000000000000009 2.5000000000000004 93.500000000000014 2.5000000000000004 2.5000000000000004 5.5000000000000009 3.5000000000000004 5.5000000000000009 2.5000000000000004 5.5000000000000009 4.5000000000000009 3.5000000000000004
decision_type=2 2 2 2 2 2 2 2 2 2 2 2 2 2 2 2 2 2 2 2 2 2 2 2 2 2 2 2 2 2
left_child=2 5 6 13 11 12 14 20 26 17 16 21 19 29 23 24 -7 -6 -10 -2 -5 -4 -15 -1 -9 -12 -8 -11 -16 -3
right_child=1 3 4 7 9 10 8 15 18 27 25 -13 -14 22 28 -17 -18 -19 -20 -21 -22 -23 -24 -25 -26 -27 -28 -29 -30 -31
leaf_value=-0.88807113625260647 0.07093879440549998 0.61268807202427888 -0.42020945785693248 0.89573347338824549 -0.16791942807067711 0.31202639348421363 -0.62482173404416574 0.63959820120903244 -0.79801389934150735 -0.34666248258808158 0.14082110091346944 -0.53102561645443414 -0.036724223547541915 0.4291770487173997 -1.0789945563372647 0.86804992979485407 0.45333479236264451 -0.027885538126776965 -0.65851697416435573 0.20483978507560183 1.0528557260199971 -0.28986284537660073 0.56004352223406151 -0.75054486268778187 0.77798941986414394 0.28284754382341043 -0.48521819675237227 -0.20978605380192403 -0.92990670256480168 0.74800115216405771
leaf_weight=8076 7974 4977 7963 7837 10616 9362 5026 6453 9893 6017 5970 10365 10344 7856 4421 9254 10666 9284 9828 10429 5162 10425 10262 7063 7343 5215 6482 5271 4466 5700
leaf_count=8076 7974 4977 7963 7837 10616 9362 5026 6453 9893 6017 5970 10365 10344 7856 4421 9254 10666 9284 9828 10429 5162 10425 10262 7063 7343 5215 6482 5271 4466 5700
internal_value=0 0.473973 -0.513505 0.721107 -0.285367 0.206709 -0.760991 0.841292 -0.661315 -0.167794 0.322693 -0.412897 0.0807759 0.570645 -0.89055 0.775403 0.387281 -0.102589 -0.728495 0.146821 0.958128 -0.34631 0.5033 -0.823909 0.713258 0.207041 -0.546189 -0.282747 -1.00407 0.684926
internal_weight=0 124804 115196 64844 59941 59960 55255 36049 31229 31188 31213 28753 28747 28795 24026 23050 20028 19900 19721 18403 12999 18388 18118 15139 13796 11185 11508 11288 8887 10677
internal_count=240000 124804 115196 64844 59941 59960 55255 36049 31229 31188 31213 28753 28747 28795 24026 23050 20028 19900 19721 18403 12999 18388 18118 15139 13796 11185 11508 11288 8887 10677
is_linear=0
shrinkage=0.1


Tree=5
num_leaves=31
num_cat=0
split_feature=0 0 0 0 0 0 0 2 2 2 2 2 2 2 2 0 1 1 1 1 1 1 1 1 0 1 1 2 2 0
split_gain=4.73948e+06 707911 497523 106591 80724.8 70784.2 43595 22871.4 21675.5 20746.7 20219.2 19378 19013 18979.4 14386 11683.2 9589.65 7606.07 7588.39 7405.31 7218.99 7043.9 6767.18 6390.51 5863.04 4715.09 4387.35 4368.87 4124.35 4103.95
threshold=52.500000000000007 27.500000000000004 78.500000000000014 14.500000000000002 66.500000000000014 40.500000000000007 90.500000000000014 3.4500000000000006 3.3500000000000001 3.3500000000000001 3.3500000000000001 3.3500000000000001 3.3500000000000001 6.4500000000000011 6.4500000000000011 4.5000000000000009 6.5000000000000009 1.5000000000000002 6.5000000000000009 6.5000000000000009 1.5000000000000002 6.5000000000000009 3.5000000000000004 5.5000000000000009 6.5000000000000009 7.5000000000000009 6.5000000000000009 7.5500000000000007 7.4500000000000011 20.500000000000004
decision_type=2 2 2 2 2 2 2 2 2 2 2 2 2 2 2 2 2 2 2 2 2 2 2 2 2 2 2 2 2 2
left_child=1 3 4 7 8 10 13 24 25 -5 26 -6 -7 19 23 -9 27 -11 28 -4 -14 -13 -17 -8 -1 -2 -3 -10 -12 -19
right_child=2 5 6 9 11 12 14 15 16 17 18 21 20 -15 -16 22 -18 29 -20 -21 -22 -23 -24 -25 -26 -27 -28 -29 -30 -31
leaf_value=-0.72205547631987366 0.23706228101378871 -0.21665241981752664 0.62915762945216536 -0.39248971261287346 0.51983586778564039 0.057957359839418611 0.80943879444673239 -0.9166412601842826 0.10729512122033893 -0.63866749928563316 -0.33724046185825468 0.29372350909868788 -0.18910987644236801 0.51356974930544619 0.70136554086149938 -0.83712257731143458 0.19521136626994423 -0.57665816416538584 -0.26112272411944892 0.75583718802064692 -0.063250405405037555 0.4165925185059689 -0.70542671834912396 0.9445865975990767 -0.58528630209504884 0.36820949382598905 -0.086413987319479815 -0.015179247583288933 -0.45973508599050894 -0.46112547395812781
leaf_weight=5909 6820 6001 10653 10630 9821 9780 7499 7796 7988 8273 7213 10791 7604 10011 7551 7312 9640 5741 8857 8141 11374 8220 8366 6559 6675 4584 4546 4584 4441 6620
leaf_count=5909 6820 6001 10653 10630 9821 9780 7499 7796 7988 8273 7213 10791 7604 10011 7551 7312 9640 5741 8857 8141 11374 8220 8366 6559 6675 4584 4546 4584 4441 6620
internal_value=0 -0.418693 0.471654 -0.641117 0.283007 -0.168358 0.705331 -0.758284 0.177712 -0.505985 -0.273035 0.405774 -0.0553091 0.624789 0.812695 -0.816596 0.120175 -0.564454 -0.330894 0.684031 -0.113679 0.34685 -0.766848 0.872494 -0.649508 0.289779 -0.160517 0.0626385 -0.38392 -0.514784
internal_weight=0 127138 112862 67322 62448 59816 50414 36058 33616 31264 31058 28832 28758 28805 21609 23474 22212 20634 20511 18794 18978 19011 15678 14058 12584 11404 10547 12572 11654 12361
internal_count=240000 127138 112862 67322 62448 59816 50414 36058 33616 31264 31058 28832 28758 28805 21609 23474 22212 20634 20511 18794 18978 19011 15678 14058 12584 11404 10547 12572 11654 12361
is_linear=0
shrinkage=0.1


Tree=6
num_leaves=31
num_cat=0
split_feature=0 0 0 0 0 0 0 2 2 2 2 2 2 2 2 0 1 1 1 1 1 1 2 1 1 0 2 2 1 2
split_gain=3.84375e+06 577093 403174 87593.2 59216 57492.9 41886.3 21686.6 19457.9 18104.9 18066.2 16832.2 15056.6 13361.7 12061.4 11055.8 8027.8 7871.77 7573.24 6628.99 6105.23 5562.28 5556.02 5456.95 5333.82 5174.84 4174.47 3854.18 3706.85 3667.18
threshold=46.500000000000007 71.500000000000014 21.500000000000004 83.500000000000014 32.500000000000007 56.500000000000007 8.5000000000000018 3.1500000000000008 3.9500000000000006 6.7500000000000009 6.6500000000000012 6.6500000000000012 6.5500000000000007 6.7500000000000009 6.6500000000000012 94.500000000000014 2.5000000000000004 6.5000000000000009 1.5000000000000002 2.5000000000000004 1.5000000000000002 2.5000000000000004 2.3500000000000001 6.5000000000000009 1.5000000000000002 93.500000000000014 2.2500000000000004 7.7500000000000009 7.5000000000000009 2.3500000000000001
decision_type=2 2 2 2 2 2 2 2 2 2 2 2 2 2 2 2 2 2 2 2 2 2 2 2 2 2 2 2 2 2
left_child=2 5 6 11 12 13 14 25 24 16 17 20 22 23 21 19 -6 -8 -10 -9 -3 -1 -4 -2 -7 -5 -18 -20 -12 -22
right_child=1 3 4 7 9 8 10 15 18 -11 28 -13 -14 -15 -16 -17 26 -19 27 -21 29 -23 -24 -25 -26 -27 -28 -29 -30 -31
leaf_value=-0.75181892703828446 0.031498881080156485 0.43063550708885945 -0.23061188420320669 0.73608409357151405 -0.17642091602448309 0.2462347151771335 -0.55226186577292991 0.51200991187253242 0.098683430425793014 -0.2657185407636084 -0.71009844870396233 0.33687264835873476 -0.46481319591735332 -0.077698788718366357 -0.84001065656993057 0.72165733505732177 0.023149151705710951 -0.42845888704131041 0.26092033730095032 0.63449271755205405 0.62052992089574177 -0.62697205659961108 -0.34802854655344467 0.14820669632498101 0.3702580935971222 0.87020042195968095 -0.097261930972296698 0.14751795263392978 -0.58737154467625285 0.503311059191488
leaf_weight=6300 9183 7716 6333 7703 9842 5767 11960 7806 8678 10812 6159 9483 8968 7664 7115 8164 4359 9001 8198 10183 4166 8231 11082 7107 8697 4592 8481 4724 4099 7427
leaf_count=6300 9183 7716 6333 7703 9842 5767 11960 7806 8678 10812 6159 9483 8968 7664 7115 8164 4359 9001 8198 10183 4166 8231 11082 7107 8697 4592 8481 4724 4099 7427
internal_value=0 0.37668 -0.425179 0.57787 -0.247491 0.15128 -0.626435 0.676639 0.231046 -0.15923 -0.552316 0.445977 -0.359541 0.0311879 -0.733334 0.625144 -0.10847 -0.499099 0.170939 0.581344 0.49956 -0.6811 -0.30533 0.0824162 0.320808 0.786175 -0.0563841 0.219463 -0.661058 0.545434
internal_weight=0 127258 112742 67240 59877 60018 52865 38448 36064 33494 31219 28792 26383 23954 21646 26153 22682 20961 21600 17989 19309 14531 17415 16290 14464 12295 12840 12922 10258 11593
internal_count=240000 127258 112742 67240 59877 60018 52865 38448 36064 33494 31219 28792 26383 23954 21646 26153 22682 20961 21600 17989 19309 14531 17415 16290 14464 12295 12840 12922 10258 11593
is_linear=0
shrinkage=0.1


Tree=7
num_leaves=31
num_cat=0
split_feature=0 0 0 0 0 0 0 2 2 2 2 2 2 2 2 0 1 1 1 1 1 1 1 1 1 0 0 2 2 2
split_gain=3.11844e+06 415949 372817 72188.8 62079.4 38161.3 34008.9 18008.9 15452.8 14907.7 13570.3 13557.3 13508.9 11901.6 11872.2 9855.54 7426.52 6309.91 6213.23 6209.39 6020.58 5795.75 4961.06 4753.68 4227.82 4062.3 3890.37 3637.73 3623.58 3584.24
threshold=50.500000000000007 27.500000000000004 77.500000000000014 15.500000000000002 64.500000000000014 38.500000000000007 89.500000000000014 2.9500000000000006 2.9500000000000006 6.7500000000000009 3.0500000000000003 7.0500000000000007 2.9500000000000006 7.0500000000000007 6.0500000000000007 7.5000000000000009 7.5000000000000009 8.5000000000000018 8.5000000000000018 1.5000000000000002 8.5000000000000018 8.5000000000000018 6.5000000000000009 8.5000000000000018 1.0000000180025095e-35 3.5000000000000004 55.500000000000007 7.6500000000000012 7.5500000000000007 2.1500000000000008
decision_type=2 2 2 2 2 2 2 2 2 2 2 2 2 2 2 2 2 2 2 2 2 2 2 2 2 2 2 2 2 2
left_child=1 3 4 7 8 14 11 25 -2 17 -5 20 -7 19 23 22 26 29 28 -8 -4 27 -9 -3 -17 -1 -10 -12 -14 -6
right_child=2 5 6 10 9 12 13 15 16 -11 21 -13 18 -15 -16 24 -18 -19 -20 -21 -22 -23 -24 -25 -26 -27 -28 -29 -30 -31
leaf_value=-0.60733461263100952 0.21615531271525504 -0.22439012921844684 0.49410081919384974 -0.29813151584802394 0.38902006357517827 0.034748520745459761 0.62354358486889427 -0.76785184666777329 -0.047845111574194202 0.20762031981977938 -0.44962371381101296 0.38365808323769057 -0.11836874615111002 0.54282538611812725 -0.32049262335825501 -0.66780582872949046 0.13723829237346594 0.42730813794092709 -0.04193479946403527 0.74682089282380937 0.60673526971377767 -0.3754449198154089 -0.64549212844887793 -0.11131856528306641 -0.5514930338283921 -0.47037266067433353 0.06164026403088757 -0.56355448027314414 -0.23041604354987749 0.2787142119815692
leaf_weight=2896 10099 10098 12964 8931 4351 8623 6781 7651 5057 9970 8451 8279 8357 6981 10285 4923 9374 7811 7407 10280 7486 7289 5845 5885 8557 8586 9060 4193 4409 9121
leaf_count=2896 10099 10098 12964 8931 4351 8623 6781 7651 5057 9970 8451 8279 8357 6981 10285 4923 9374 7811 7407 10280 7486 7289 5845 5885 8557 8586 9060 4193 4409 9121
internal_value=0 -0.353368 0.367705 -0.520096 0.207091 -0.149523 0.565062 -0.609806 0.11271 0.308529 -0.400568 0.491623 -0.0700127 0.652817 -0.236686 -0.654451 0.068238 0.3558 -0.114793 0.697824 0.535332 -0.446464 -0.714859 -0.182757 -0.593971 -0.504917 0.0224203 -0.487405 -0.157067 0.314339
internal_weight=0 122386 117614 67322 64843 55064 52771 38458 33590 31253 28864 28729 28796 24042 26268 26976 23491 21283 20173 17061 20450 19933 13496 15983 13480 11482 14117 12644 12766 13472
internal_count=240000 122386 117614 67322 64843 55064 52771 38458 33590 31253 28864 28729 28796 24042 26268 26976 23491 21283 20173 17061 20450 19933 13496 15983 13480 11482 14117 12644 12766 13472
is_linear=0
shrinkage=0.1


Tree=8
num_leaves=31
num_cat=0
split_feature=0 0 0 0 0 0 0 2 2 2 2 2 2 2 2 1 1 1 1 1 1 2 1 1 0 2 1 1 2 0
split_gain=2.52928e+06 382331 267330 64283.4 43996.7 33464.2 23628.8 16166.6 13808.4 12868.2 12340.8 11668.6 11323.8 10492.1 8918.31 8626.91 7018.88 6060.74 5661.27 5431.87 5131.12 4762.74 4642.31 4472.76 3842.35 3839.51 3780.53 3210.08 3087.83 2969.35
threshold=46.500000000000007 70.500000000000014 20.500000000000004 83.500000000000014 31.500000000000004 58.500000000000007 8.5000000000000018 2.8500000000000001 2.8500000000000001 3.1500000000000008 7.0500000000000007 6.0500000000000007 6.9500000000000011 6.8500000000000005 7.2500000000000009 7.5000000000000009 1.0000000180025095e-35 1.5000000000000002 1.0000000180025095e-35 5.5000000000000009 7.5000000000000009 7.5500000000000007 7.5000000000000009 1.0000000180025095e-35 95.500000000000014 7.8500000000000005 1.5000000000000002 1.0000000180025095e-35 2.1500000000000008 95.500000000000014
decision_type=2 2 2 2 2 2 2 2 2 2 2 2 2 2 2 2 2 2 2 2 2 2 2 2 2 2 2 2 2 2
left_child=2 5 6 9 13 11 14 26 -6 -3 17 23 19 20 22 21 -10 -8 -11 -7 -4 29 -1 -2 -17 -18 -5 -13 -19 -9
right_child=1 3 4 7 8 12 10 15 16 18 -12 27 -14 -15 -16 24 25 28 -20 -21 -22 -23 -24 -25 -26 -27 -28 -29 -30 -31
leaf_value=-0.60005732921374433 0.023256744816823036 0.44974811143332122 -0.30518177727939766 0.57954964539871889 -0.037019419874179865 0.18355692222183695 -0.48135024018072603 0.47085574359732896 -0.24240764066752712 0.24436215016873827 -0.55960164323668327 -0.11103663679967446 0.094947742741138291 -0.39836959028890839 -0.70037397161706705 0.54325105503332582 -0.10171778132542307 -0.29513316862393923 0.35168160593686748 0.28742582835118741 -0.19670722013952349 0.38697505754192535 -0.48935994362139335 0.12805511991895657 0.68089914145031039 -0.20828721984346471 0.69854462576146892 -0.00016508661501391008 -0.40388620976080986 0.59160087838285447
leaf_weight=9487 6430 10046 10965 4433 10385 10806 8248 8179 9411 7764 8294 4128 8596 8183 5852 8184 11267 3767 13397 9427 7240 5531 6307 11108 2696 4830 6713 7108 8506 2712
leaf_count=9487 6430 10046 10965 4433 10385 10806 8248 8179 9411 7764 8294 4128 8596 8183 5852 8184 11267 3767 13397 9427 7240 5531 6307 11108 2696 4830 6713 7108 8506 2712
internal_value=0 0.305557 -0.344899 0.463182 -0.206293 0.114954 -0.515972 0.549731 -0.134227 0.356551 -0.456663 0.0386614 0.191101 -0.304318 -0.594924 0.508299 -0.173804 -0.415058 0.312306 0.231952 -0.262042 0.462545 -0.555853 0.0896326 0.577359 -0.133695 0.651218 -0.0408982 -0.370506 0.500923
internal_weight=0 127258 112742 69655 62281 57603 50461 38448 35893 31207 28815 28774 28829 26388 21646 27302 25508 20521 21161 20233 18205 16422 15794 17538 10880 16097 11146 11236 12273 10891
internal_count=240000 127258 112742 69655 62281 57603 50461 38448 35893 31207 28815 28774 28829 26388 21646 27302 25508 20521 21161 20233 18205 16422 15794 17538 10880 16097 11146 11236 12273 10891
is_linear=0
shrinkage=0.1


Tree=9
num_leaves=31
num_cat=0
split_feature=0 0 0 0 0 0 0 2 2 2 2 2 2 2 2 1 0 1 1 1 1 1 1 1 1 2 2 1 2 1
split_gain=2.05467e+06 324325 204989 52935.4 34969 31782.1 17363.2 12661.2 11586.5 11497.1 11148.5 10130.3 9907.67 8986.93 6840.07 5925.3 5677.49 5580.79 5427.57 4630.1 4378.43 4215.74 4063.26 3993.12 3945.74 3228.32 3196.17 3195.11 3137.81 2700.49
threshold=53.500000000000007 28.500000000000004 79.500000000000014 14.500000000000002 67.500000000000014 42.500000000000007 91.500000000000014 6.0500000000000007 2.6500000000000008 2.8500000000000001 3.0500000000000003 7.1500000000000012 4.5500000000000007 7.1500000000000012 2.6500000000000008 -1.0000000180025095e-35 3.5000000000000004 -1.0000000180025095e-35 9.5000000000000018 9.5000000000000018 9.5000000000000018 1.5000000000000002 1.0000000180025095e-35 8.5000000000000018 9.5000000000000018 7.9500000000000011 7.9500000000000011 1.0000000180025095e-35 7.9500000000000011 1.0000000180025095e-35
decision_type=2 2 2 2 2 2 2 2 2 2 2 2 2 2 2 2 2 2 2 2 2 2 2 2 2 2 2 2 2 2
left_child=1 3 4 7 8 10 12 16 -2 -5 29 19 27 20 -8 -10 -1 -11 28 -6 -7 -9 -16 -18 -14 -19 -17 -4 -12 -3
right_child=2 5 6 9 11 13 14 21 15 17 18 -13 24 -15 22 26 23 25 -20 -21 -22 -23 -24 -25 -26 -27 -28 -29 -30 -31
leaf_value=-0.53787983488072144 0.22437529828519689 -0.14471110566304191 0.42224282011963443 -0.23514079718499376 0.28162575876728319 -0.014776635599859462 0.64400259310601415 -0.64210037298039846 0.02295482387660347 -0.43217461294511827 -0.20791160519847673 0.18293751911694991 0.33311766009524263 -0.11047760584141304 0.43904433023975625 0.15430223274418517 -0.4607203155132078 -0.30157030986588751 -0.13423114805097422 0.38173995744807471 0.087164769784596238 -0.53040894237808311 0.55040587929397922 -0.35735333156472371 0.44032537004121031 -0.40184416126820355 0.05508047895860755 0.52386432007724426 -0.30704078739723273 -0.039005514554627689
leaf_weight=5859 9106 3828 4909 9754 13824 12560 5165 5628 8204 7988 10878 8051 10374 7416 5180 11854 10222 11436 7711 6938 6340 8458 8916 5891 5131 4464 4471 8368 4520 6556
leaf_count=5859 9106 3828 4909 9754 13824 12560 5165 5628 8204 7988 10878 8051 10374 7416 5180 11854 10222 11436 7711 6938 6340 8458 8916 5891 5131 4464 4471 8368 4520 6556
internal_value=0 -0.270258 0.316776 -0.416849 0.197306 -0.0994247 0.472067 -0.501027 0.128047 -0.326626 -0.164041 0.278157 0.422888 -0.0171862 0.545555 0.0922861 -0.453581 -0.363982 -0.202715 0.315081 0.0194196 -0.575035 0.509483 -0.422929 0.368595 -0.329723 0.127128 0.486291 -0.23701 -0.0779733
internal_weight=0 129509 110491 69700 62448 59809 48043 36058 33635 33642 33493 28813 28782 26316 19261 24529 21972 23888 23109 20762 18900 14086 14096 16113 15505 15900 16325 13277 15398 10384
internal_count=240000 129509 110491 69700 62448 59809 48043 36058 33635 33642 33493 28813 28782 26316 19261 24529 21972 23888 23109 20762 18900 14086 14096 16113 15505 15900 16325 13277 15398 10384
is_linear=0
shrinkage=0.1


Tree=10
num_leaves=31
num_cat=0
split_feature=0 0 0 0 0 0 0 2 2 2 2 2 2 2 2 1 1 1 1 1 1 1 0 1 2 1 2 2 1 1
split_gain=1.66443e+06 249840 177543 38323.2 27982 26746.9 19243 10420.2 9839.8 9105.36 8897.54 8817.76 8621.25 8090.7 7583.53 5359.09 5254.54 4688.4 4569.22 4118.66 4087.78 4063.37 3679.82 3406.26 3229.86 2997.58 2595.74 2583.16 2483.7 2260.27
threshold=52.500000000000007 24.500000000000004 77.500000000000014 37.500000000000007 12.500000000000002 65.500000000000014 89.500000000000014 2.5500000000000003 2.6500000000000008 7.0500000000000007 2.9500000000000006 3.5500000000000003 2.5500000000000003 4.1500000000000012 6.7500000000000009 9.5000000000000018 -1.4999999999999998 9.5000000000000018 -1.0000000180025095e-35 -1.0000000180025095e-35 8.5000000000000018 -1.0000000180025095e-35 3.5000000000000004 9.5000000000000018 8.0500000000000025 8.5000000000000018 1.8500000000000003 8.1500000000000004 -1.0000000180025095e-35 1.5000000000000002
decision_type=2 2 2 2 2 2 2 2 2 2 2 2 2 2 2 2 2 2 2 2 2 2 2 2 2 2 2 2 2 2
left_child=1 4 5 11 8 9 12 -5 -1 17 -7 28 -4 25 20 22 -9 26 -14 -13 -8 -12 -10 -15 -18 -6 -2 -20 -3 -11
right_child=2 3 6 7 13 10 14 16 15 29 21 19 18 23 -16 -17 24 -19 27 -21 -22 -23 -24 -25 -26 -27 -28 -29 -30 -31
leaf_value=-0.36916944344309116 0.16921595027762495 -0.19204686404537852 0.45006915459855956 0.045906889092330712 -0.30041756600311298 0.31622792902328872 0.47980660520960727 -0.14465567251065073 -0.60410342097641012 -0.047659593384410184 0.1317209893410278 -0.30080695805086965 0.25990070950127808 -0.40217662054930203 0.39751351646932825 -0.4274747206245999 -0.023228318612325119 0.19703718181204211 0.38249470377128697 -0.20440407994928289 0.58355465614682456 0.22681878985390769 -0.49737718234874306 -0.30626263419106792 -0.11826935948028564 -0.19697793781334913 0.074348830904664084 0.2826453224687705 -0.09217046685678866 0.054253857009137631
leaf_weight=8408 3935 3745 7524 9315 7724 8655 10344 8017 4654 3633 6748 6658 7079 11128 7697 7663 13810 7446 10708 13254 6001 13446 10563 5549 4825 4396 10801 3418 7429 5427
leaf_count=8408 3935 3745 7524 9315 7724 8655 10344 8017 4654 3633 6748 6658 7079 11128 7697 7663 13810 7446 10708 13254 6001 13446 10563 5549 4825 4396 10801 3418 7429 5427
internal_value=0 -0.248121 0.279506 -0.115422 -0.396209 0.16197 0.413346 -0.045139 -0.461679 0.0978597 0.231398 -0.196741 0.358105 -0.325076 0.479357 -0.495674 -0.07696 0.132362 0.325474 -0.236638 0.517897 0.195041 -0.530019 -0.370263 -0.0478365 -0.262899 0.0996815 0.358335 -0.125644 0.0133872
internal_weight=0 127138 112862 67053 60085 60091 52771 35967 31288 31242 28849 31086 28729 28797 24042 22880 26652 22182 21205 19912 16345 20194 15217 16677 18635 12120 14736 14126 11174 9060
internal_count=240000 127138 112862 67053 60085 60091 52771 35967 31288 31242 28849 31086 28729 28797 24042 22880 26652 22182 21205 19912 16345 20194 15217 16677 18635 12120 14736 14126 11174 9060
is_linear=0
shrinkage=0.1


Tree=11
num_leaves=31
num_cat=0
split_feature=0 0 0 0 0 0 2 2 2 2 0 2 2 2 1 1 1 1 1 1 2 1 1 0 0 2 2 2 1 2
split_gain=1.35483e+06 215175 135901 32350.9 23029.8 22580.5 13110 9764.89 9072.52 8852.1 8722.11 8481.79 6701.29 6119.72 5039.07 4940.1 4465.19 4244.31 4126.62 3898.58 3653.53 3227.22 3155.04 3142.63 3023.87 2685.22 2669.28 2451.47 2352.83 2210.01
threshold=45.500000000000007 71.500000000000014 19.500000000000004 85.500000000000014 61.500000000000007 33.500000000000007 7.3500000000000005 2.3500000000000001 7.4500000000000011 7.2500000000000009 7.5000000000000009 7.1500000000000012 6.9500000000000011 2.4500000000000006 9.5000000000000018 10.500000000000002 10.500000000000002 10.500000000000002 -1.0000000180025095e-35 9.5000000000000018 7.8500000000000005 10.500000000000002 -1.0000000180025095e-35 3.5000000000000004 96.500000000000014 1.8500000000000003 1.7500000000000002 1.8500000000000003 1.5000000000000002 8.0500000000000025
decision_type=2 2 2 2 2 2 2 2 2 2 2 2 2 2 2 2 2 2 2 2 2 2 2 2 2 2 2 2 2 2
left_child=2 4 6 8 7 11 10 -2 17 14 22 16 19 -6 24 20 25 26 -12 -7 -9 29 -1 -8 -5 -4 -3 -20 -11 -15
right_child=1 3 5 9 13 12 23 15 -10 28 18 -13 -14 21 -16 -17 -18 -19 27 -21 -22 -23 -24 -25 -26 -27 -28 -29 -30 -31
leaf_value=-0.4801051425492972 0.12748085595900741 0.345859683031779 -0.14589875043370215 0.38943391971209884 0.24962509939235128 -0.09442439313378638 -0.5724302081825634 0.0083607398359581593 0.18376364045840607 0.26596580800103869 -0.37479071676028308 -0.29617925462106198 -0.16838935511327868 0.12976013574906833 0.50777042893853752 0.071860437409381347 -0.11856654821063065 0.36660689689857562 -0.2104903103716303 -0.00089620070608817208 -0.0861683176331135 0.19800890156058379 -0.38032732862298269 -0.44706851237369388 0.49447788770735424 -0.23635466248252268 0.2550550994318192 -0.30577965198321266 0.36987657635300253 0.033413101585303771
leaf_weight=4759 9166 4270 4458 12909 6012 13363 2504 14782 8384 3641 7124 9435 8685 9455 8196 8792 7227 7549 3619 6687 5652 5375 9486 9929 3479 12438 13385 10630 5427 3182
leaf_count=4759 9166 4270 4458 12909 6012 13363 2504 14782 8384 3641 7124 9435 8685 9455 8196 8792 7227 7549 3619 6687 5652 5375 9486 9929 3479 12438 13385 10630 5427 3182
internal_value=0 0.219187 -0.257548 0.343305 0.0854765 -0.160079 -0.383907 0.0374258 0.273875 0.412602 -0.353047 -0.215791 -0.0950147 0.162265 0.443751 0.00918231 -0.18435 0.303851 -0.312647 -0.0632312 -0.0177858 0.133106 -0.413661 -0.472316 0.411734 -0.212488 0.277017 -0.281578 0.328154 0.1055
internal_weight=0 129656 110344 67240 62416 62293 48051 38392 33588 33652 35618 33558 28735 24024 24584 29226 24123 25204 21373 20050 20434 18012 14245 12433 16388 16896 17655 14249 9068 12637
internal_count=240000 129656 110344 67240 62416 62293 48051 38392 33588 33652 35618 33558 28735 24024 24584 29226 24123 25204 21373 20050 20434 18012 14245 12433 16388 16896 17655 14249 9068 12637
is_linear=0
shrinkage=0.1


Tree=12
num_leaves=31
num_cat=0
split_feature=0 0 0 0 0 0 2 2 2 0 2 2 2 0 2 1 1 1 1 1 2 1 1 2 0 1 1 2 1 2
split_gain=1.09906e+06 174738 110903 31964.8 20001.1 14799.2 10617.4 9181.83 7382.6 6900.67 6504.19 6359.55 6357.34 5773.6 5742.18 4572.16 4261.08 3929.37 3611.18 3437 2962.14 2890.24 2762.96 2704.26 2543.91 2308.2 2243.08 2175.42 2106.63 2066.11
threshold=53.500000000000007 29.500000000000004 80.500000000000014 16.500000000000004 68.500000000000014 42.500000000000007 2.2500000000000004 2.3500000000000001 5.3500000000000005 95.500000000000014 2.6500000000000008 2.1500000000000008 6.1500000000000012 3.5000000000000004 4.1500000000000012 -1.4999999999999998 10.500000000000002 -1.4999999999999998 -1.4999999999999998 -1.4999999999999998 8.0500000000000025 -1.4999999999999998 -1.4999999999999998 8.0500000000000025 95.500000000000014 -1.0000000180025095e-35 8.5000000000000018 8.2500000000000018 -1.0000000180025095e-35 8.2500000000000018
decision_type=2 2 2 2 2 2 2 2 2 2 2 2 2 2 2 2 2 2 2 2 2 2 2 2 2 2 2 2 2 2
left_child=1 3 4 7 8 11 24 -1 19 15 -5 -3 21 -9 28 -8 20 -13 -12 -2 -15 -6 -10 -17 -4 -16 -14 -19 -7 -20
right_child=2 5 6 10 12 14 9 13 22 -11 18 17 26 16 25 23 -18 27 29 -21 -22 -23 -24 -25 -26 -27 -28 -29 -30 -31
leaf_value=-0.27484665468191372 0.075645359531089126 -0.02904206879216863 0.41406639675401902 -0.14998868254333123 0.18468948071395697 -0.019301729362750542 0.23980068658205905 -0.46398116453876875 -0.013155053666772868 0.41072172112833694 -0.31364695172711188 -0.19940610451534327 0.1149565337884958 -0.36583963258675734 -0.10676114997340953 0.34969871358517768 -0.29784532281164505 -0.092698754833518013 -0.20696084960849045 0.1672579935950648 -0.46355016724796744 0.27260382006854306 0.075774754760688651 0.26315130019242694 0.53534103693680324 -0.024450882584315908 0.20897270879966279 -0.17895164214104375 0.073489552203167205 -0.2921339383736602
leaf_weight=9742 5856 6838 8329 8410 5324 3665 8314 7288 5007 7370 6844 7328 6891 12536 5124 14668 7175 13215 12226 13619 4123 12565 11559 4789 2183 10167 4017 3755 7360 3713
leaf_count=9742 5856 6838 8329 8410 5324 3665 8314 7288 5007 7370 6844 7328 6891 12536 5124 14668 7175 13215 12226 13619 4123 12565 11559 4789 2183 10167 4017 3755 7360 3713
internal_value=0 -0.19766 0.231682 -0.301379 0.147615 -0.0675748 0.351078 -0.35957 0.0979684 0.324701 -0.225147 -0.114235 0.20975 -0.386091 -0.0123687 0.301873 -0.362273 -0.13821 -0.25289 0.139711 -0.390022 0.246439 0.0488961 0.328397 0.439251 -0.052033 0.149579 -0.111784 0.0426433 -0.226802
internal_weight=0 129509 110491 72057 64838 57452 45653 40864 36041 35141 31193 31136 28797 31122 26316 27771 23834 24298 22783 19475 16659 17889 16566 19457 10512 15291 10908 16970 11025 15939
internal_count=240000 129509 110491 72057 64838 57452 45653 40864 36041 35141 31193 31136 28797 31122 26316 27771 23834 24298 22783 19475 16659 17889 16566 19457 10512 15291 10908 16970 11025 15939
is_linear=0
shrinkage=0.1


Tree=13
num_leaves=31
num_cat=0
split_feature=0 0 0 0 0 0 2 2 2 2 2 0 2 1 2 1 1 0 1 2 2 1 1 1 1 2 1 1 0 1
split_gain=891434 148833 83954.5 25979.7 13302.3 12531.5 9204.64 7652.06 6321 5902.2 5729.66 5141.28 4975.91 4951.82 4858.89 3821.39 3633.09 2952.59 2839.44 2733.58 2570.32 2508.68 2503.04 2371.5 2329 2310.01 2046.3 1880.38 1862.42 1846.26
threshold=54.500000000000007 29.500000000000004 79.500000000000014 15.500000000000002 43.500000000000007 69.500000000000014 5.6500000000000012 7.6500000000000012 2.2500000000000004 5.2500000000000009 4.9500000000000011 92.500000000000014 2.0500000000000003 -1.4999999999999998 4.3500000000000005 6.5000000000000009 11.500000000000002 2.5000000000000004 9.5000000000000018 8.2500000000000018 8.2500000000000018 10.500000000000002 10.500000000000002 11.500000000000002 1.0000000180025095e-35 1.7500000000000002 11.500000000000002 -2.4999999999999996 90.500000000000014 -1.0000000180025095e-35
decision_type=2 2 2 2 2 2 2 2 2 2 2 2 2 2 2 2 2 2 2 2 2 2 2 2 2 2 2 2 2 2
left_child=1 3 5 7 10 8 11 13 -2 18 21 23 -6 -1 -7 28 20 -15 -5 26 -10 -3 -12 -4 -11 -19 -14 -16 -8 -9
right_child=2 4 6 9 12 14 15 29 16 24 22 -13 19 17 27 -17 -18 25 -20 -21 -22 -23 -24 -25 -26 -27 -28 -29 -30 -31
leaf_value=-0.36547030051111351 0.17332978266922772 -0.083681434599202992 0.29580715971517407 -0.19566721446812779 0.08029759304630571 0.2407142003274072 0.18738985555846627 -0.4744192684016717 0.071006682103854205 -0.30194883605484879 -0.16614917924079342 0.40848570186295108 -0.029272021011573203 -0.3549991745671926 0.088195687541623463 0.31038667617789284 0.1340478718844694 -0.19083177299984277 -0.11087791625767943 -0.095881496080523418 -0.014668817590351055 0.00072028990234692118 -0.081916164129397021 0.37849415862732161 -0.22225084022515851 -0.27852336435967556 0.050669961684113668 0.172745580065369 0.26750597504024548 -0.37706817108967583
leaf_weight=8893 8304 11684 13113 11927 5457 10588 6440 2906 15858 5801 11774 9588 12010 3875 3593 8905 7366 3910 5905 4510 4494 5041 5037 4716 9966 12964 4366 9818 5281 5910
leaf_count=8893 8304 11684 13113 11927 5457 10588 6440 2906 15858 5801 11774 9588 12010 3875 3593 8905 7366 3910 5905 4510 4494 5041 5037 4716 9966 12964 4366 9818 5281 5910
internal_value=0 -0.174421 0.212951 -0.271241 -0.0579089 0.134093 0.31147 -0.327365 0.0967972 -0.207001 -0.0996826 0.349435 -0.0047289 -0.303039 0.190074 0.261005 0.0738689 -0.276281 -0.16759 -0.0269442 0.0520884 -0.0582423 -0.140911 0.317679 -0.251573 -0.258204 -0.00795872 0.150093 0.223487 -0.409158
internal_weight=0 131936 108064 72057 59879 60021 48043 38458 36022 33599 33536 27417 26343 29642 23999 20626 27718 20749 17832 20886 20352 16725 16811 17829 15767 16874 16376 13411 11721 8816
internal_count=240000 131936 108064 72057 59879 60021 48043 38458 36022 33599 33536 27417 26343 29642 23999 20626 27718 20749 17832 20886 20352 16725 16811 17829 15767 16874 16376 13411 11721 8816
is_linear=0
shrinkage=0.1


Tree=14
num_leaves=31
num_cat=0
split_feature=0 0 0 0 0 0 0 2 2 2 2 2 2 2 1 2 1 1 1 2 1 1 2 0 1 2 1 2 1 2
split_gain=722928 94302.7 93546.5 16641.6 13594.4 13061.9 9332.87 5633.98 5179.18 5172.04 5103.44 4990.7 4600.91 4504.84 3560.79 3556.9 3278.27 3222.02 3140.37 2876.02 2794.8 2568.73 2510.68 2279.75 1943 1926.28 1907.27 1874 1725.94 1710.1
threshold=49.500000000000007 21.500000000000004 74.500000000000014 36.500000000000007 87.500000000000014 61.500000000000007 7.5000000000000009 7.3500000000000005 1.9500000000000002 7.7500000000000009 7.2500000000000009 2.5500000000000003 1.9500000000000002 7.2500000000000009 -1.0000000180025095e-35 3.7500000000000004 11.500000000000002 -2.4999999999999996 7.5000000000000009 1.6500000000000001 -2.4999999999999996 -2.4999999999999996 1.6500000000000001 96.500000000000014 1.0000000180025095e-35 1.6500000000000001 -3.4999999999999996 1.5500000000000003 8.5000000000000018 8.3500000000000032
decision_type=2 2 2 2 2 2 2 2 2 2 2 2 2 2 2 2 2 2 2 2 2 2 2 2 2 2 2 2 2 2
left_child=1 6 5 7 9 13 15 17 -6 19 16 28 -5 21 -10 -1 27 -3 -14 -4 -13 -2 -19 -16 -17 -23 -21 -8 -7 -22
right_child=2 3 4 12 8 11 10 -9 14 -11 -12 20 18 -15 23 24 -18 22 -20 26 29 25 -24 -25 -26 -27 -28 -29 -30 -31
leaf_value=-0.27409106136199818 0.0029042414561433576 -0.17539455436484916 0.30257926188014839 0.035592019216244636 0.39593046788173258 0.1622318591926514 -0.17904429698882976 -0.2078804273391911 0.23445478693128471 0.13917368962045787 -0.30606832639313719 0.048753730885661088 -0.089621815826328943 -0.028583866565491452 0.29567248737918544 -0.41556673818037648 -0.15733827105985315 -0.030800770793644017 -0.017308082905683825 0.16203197635104019 0.14392406487107806 0.1462161462467772 -0.11630453728540505 0.38473914811852833 -0.33189162755464269 0.062354951375298888 0.23689428044152275 -0.2570287987278978 0.25780151380579114 0.066570551496360181
leaf_weight=7312 5640 7100 5326 6204 5783 5132 3940 9393 7674 6833 9013 6182 14973 7746 11529 4389 6523 4458 10027 4437 13303 3566 14953 3828 7547 11811 14606 14141 2991 3640
leaf_count=7312 5640 7100 5326 6204 5783 5132 3940 9393 7674 6833 9013 6182 14973 7746 11529 4389 6523 4458 10027 4437 13303 3566 14953 3828 7547 11811 14606 14141 2991 3640
internal_value=0 -0.173596 0.173518 -0.0949064 0.261797 0.0852318 -0.273486 -0.141331 0.311323 0.216061 -0.241693 0.129992 -0.0414896 0.0366043 0.290078 -0.329014 -0.218111 -0.117752 -0.0606182 0.23762 0.106306 0.06063 -0.0966674 0.317874 -0.36266 0.0818028 0.219451 -0.240035 0.197422 0.127306
internal_weight=0 119973 120027 67108 60016 60011 52865 35904 28814 31202 33617 31248 31204 28763 23031 19248 24604 26511 25000 24369 23125 21017 19411 15357 11936 15377 19043 18081 8123 16943
internal_count=240000 119973 120027 67108 60016 60011 52865 35904 28814 31202 33617 31248 31204 28763 23031 19248 24604 26511 25000 24369 23125 21017 19411 15357 11936 15377 19043 18081 8123 16943
is_linear=0
shrinkage=0.1


Tree=15
num_leaves=31
num_cat=0
split_feature=0 0 0 0 0 0 2 2 1 2 2 2 1 2 0 2 1 1 1 1 0 1 2 2 1 2 1 1 0 2
split_gain=587053 93698.6 60121.3 13503 12375.8 10039.4 6720.24 6100.92 4844.17 4446.46 4446.45 4399.65 4088.13 3777.19 3568.93 3038.18 2912.64 2681.85 2495.74 2213.44 2101.29 1881.47 1807.62 1797.28 1733 1588.27 1587.73 1582.89 1560.44 1484.85
threshold=45.500000000000007 73.500000000000014 19.500000000000004 59.500000000000007 82.500000000000014 31.500000000000004 7.8500000000000005 7.6500000000000012 10.500000000000002 7.2500000000000009 5.4500000000000011 1.9500000000000002 10.500000000000002 2.2500000000000004 4.5000000000000009 7.8500000000000005 2.5000000000000004 11.500000000000002 11.500000000000002 11.500000000000002 96.500000000000014 11.500000000000002 1.6500000000000001 8.1500000000000004 -2.4999999999999996 1.3500000000000003 10.500000000000002 -1.4999999999999998 95.500000000000014 1.9500000000000002
decision_type=2 2 2 2 2 2 2 2 2 2 2 2 2 2 2 2 2 2 2 2 2 2 2 2 2 2 2 2 2 2
left_child=2 3 6 10 15 13 8 12 14 17 19 -5 20 -4 -1 21 -13 -7 23 -2 25 -3 -16 -15 -12 -6 -9 -8 -14 -10
right_child=1 4 5 11 7 9 27 26 29 -11 24 16 28 18 22 -17 -18 -19 -20 -21 -22 -23 -24 -25 -26 -27 -28 -29 -30 -31
leaf_value=-0.32114952979994216 0.029553182568371378 0.17044654102537771 -0.08149615282177132 0.17939840394431866 0.31046644221999098 -0.065208648334834432 -0.38781864575483282 0.16731604398202793 -0.11694348826745733 -0.1269955759315391 -0.078466674052353344 0.051549724584670699 0.31846229094044903 -0.16962772575482687 -0.17881163708563003 0.09811114827566185 0.11793526094476858 0.0097692497843625825 -0.1121726868527133 0.10779824203193207 0.32948134290300674 0.2453756103643796 -0.25224635574308713 -0.24819591656966936 -0.0021401244913886019 0.2342132268101228 0.25737318240975565 -0.30070074966299165 0.41421120918779819 -0.20054293731732345
leaf_weight=6655 13543 12520 6587 6741 3347 17854 2962 6590 2826 9131 4070 11700 7169 12485 4259 4495 15189 6510 5929 4932 3858 4576 15740 3797 11054 14855 2785 7049 2232 8560
leaf_count=6655 13543 12520 6587 6741 3347 17854 2962 6590 2826 9131 4070 11700 7169 12485 4259 4495 15189 6510 5929 4932 3858 4576 15740 3797 11054 14855 2785 7049 2232 8560
internal_value=0 0.144282 -0.169533 0.0623638 0.232501 -0.104704 -0.253578 0.264876 -0.234393 -0.0674797 0.0175268 0.10716 0.285976 -0.147999 -0.257716 0.171268 0.0890494 -0.0451747 -0.167722 0.0504411 0.262444 0.190502 -0.236608 -0.18795 -0.0226803 0.248235 0.194069 -0.326477 0.341195 -0.179794
internal_weight=0 129656 110344 67229 62427 62293 48051 40836 38040 33495 33599 33630 31461 28798 26654 21591 26889 24364 22211 18475 22060 17096 19999 16282 15124 18202 9375 10011 9401 11386
internal_count=240000 129656 110344 67229 62427 62293 48051 40836 38040 33495 33599 33630 31461 28798 26654 21591 26889 24364 22211 18475 22060 17096 19999 16282 15124 18202 9375 10011 9401 11386
is_linear=0
shrinkage=0.1


Tree=16
num_leaves=31
num_cat=0
split_feature=0 0 0 0 0 0 2 1 2 2 2 2 2 2 1 1 1 1 1 1 0 2 2 1 1 2 1 0 2 2
split_gain=477307 79884 45392.8 13804.2 8425.2 8349.48 5526.44 4448.95 4185.81 3937.4 3706.59 3578.52 3456.28 3283.01 2895.89 2509.33 2480.9 2473.15 2443.58 2440.69 2178.03 2014.37 1961.06 1825.88 1728.95 1600.6 1436.98 1420.4 1292.26 1283.18
threshold=54.500000000000007 28.500000000000004 81.500000000000014 11.500000000000002 67.500000000000014 40.500000000000007 3.7500000000000004 -2.4999999999999996 2.6500000000000008 7.4500000000000011 4.8500000000000005 7.1500000000000012 2.5500000000000003 1.8500000000000003 -2.4999999999999996 -3.4999999999999996 -3.4999999999999996 11.500000000000002 -1.4999999999999998 12.500000000000002 94.500000000000014 8.3500000000000032 1.5500000000000003 8.5000000000000018 1.0000000180025095e-35 8.5500000000000025 -1.0000000180025095e-35 95.500000000000014 7.5500000000000007 8.5500000000000025
decision_type=2 2 2 2 2 2 2 2 2 2 2 2 2 2 2 2 2 2 2 2 2 2 2 2 2 2 2 2 2 2
left_child=1 3 4 10 11 13 18 28 26 15 24 17 -9 -3 -8 -7 -15 -2 -4 21 -16 -10 -17 -12 -1 -14 -6 -20 -5 -18
right_child=2 5 6 7 8 9 14 12 19 -11 23 -13 25 16 20 22 29 -19 27 -21 -22 -23 -24 -25 -26 -27 -28 -29 -30 -31
leaf_value=-0.26349777524282592 0.066479468069686687 -0.014677509124658907 0.22181151062068785 -0.19915434103918639 0.13901285574651492 -0.04886465584919978 0.15268026858022199 -0.08642446711896111 0.11596092038346328 -0.07050348213494495 -0.31606294686670311 0.010993693782673744 -0.15091078331556643 -0.1601631729752753 0.20634746185487829 0.087537573610769887 -0.070757407189264251 0.1413679652299695 0.2871547401396643 0.173048945286462 0.28073617669531759 0.036666099966203222 0.0093584239369708788 -0.24314232358948271 -0.19082305690589124 -0.21944259024816548 0.22345019241187108 0.37152973070612944 -0.2799468692465325 -0.14135991471942821
leaf_weight=5167 16487 5403 4930 8350 3012 5859 7159 7772 14629 8442 9308 8701 17926 5462 14195 4068 14694 6020 8969 5756 5446 4102 15187 5441 8933 4208 6092 2566 2595 3121
leaf_count=5167 16487 5403 4930 8350 3012 5859 7159 7772 14629 8442 9308 8701 17926 5462 14195 4068 14694 6020 8969 5756 5446 4102 15187 5441 8933 4208 6092 2566 2595 3121
internal_value=0 -0.12763 0.155824 -0.201158 0.102865 -0.0452835 0.235141 -0.163759 0.137621 -0.0114215 -0.254115 0.0654556 -0.143795 -0.0849026 0.207128 0.00843877 -0.101203 0.0865101 0.280739 0.116097 0.226974 0.0985957 0.0258753 -0.289162 -0.217455 -0.16394 0.195515 0.305924 -0.21831 -0.0831262
internal_weight=0 131936 108064 69700 64799 62236 43265 40851 33591 33556 28849 31208 29906 28680 26800 25114 23277 22507 16465 24487 19641 18731 19255 14749 14100 22134 9104 11535 10945 17815
internal_count=240000 131936 108064 69700 64799 62236 43265 40851 33591 33556 28849 31208 29906 28680 26800 25114 23277 22507 16465 24487 19641 18731 19255 14749 14100 22134 9104 11535 10945 17815
is_linear=0
shrinkage=0.1


Tree=17
num_leaves=31
num_cat=0
split_feature=0 0 0 0 0 0 2 2 2 1 1 2 2 1 2 1 0 1 1 2 1 1 2 2 0 2 2 1 1 0
split_gain=386619 65416.8 36893.3 9267.35 8570.89 6408.14 5053.98 3987.37 3725.44 3711.2 3401.06 3069.07 2784.7 2571.33 2447.21 2394.94 2366.25 2224.11 2216.15 2101.63 1935.47 1762.22 1640.12 1583.19 1536.37 1434.02 1258.07 1168.41 1125.23 1094.34
threshold=54.500000000000007 25.500000000000004 80.500000000000014 37.500000000000007 10.500000000000002 65.500000000000014 8.2500000000000018 3.5500000000000003 7.6500000000000012 12.500000000000002 12.500000000000002 2.0500000000000003 2.5500000000000003 -3.4999999999999996 6.4500000000000011 12.500000000000002 95.500000000000014 -2.4999999999999996 12.500000000000002 2.0500000000000003 12.500000000000002 8.5000000000000018 8.6500000000000004 1.4500000000000002 2.5000000000000004 1.3500000000000003 8.4500000000000011 -4.4999999999999991 1.5000000000000002 92.500000000000014
decision_type=2 2 2 2 2 2 2 2 2 2 2 2 2 2 2 2 2 2 2 2 2 2 2 2 2 2 2 2 2 2
left_child=1 4 5 12 11 13 9 21 15 16 14 -1 -3 -2 27 25 23 -13 22 -15 26 -5 -9 -4 -19 -7 -14 -6 -10 -11
right_child=2 3 6 7 10 8 -8 18 28 29 -12 17 20 19 -16 -17 -18 24 -20 -21 -22 -23 -24 -25 -26 -27 -28 -29 -30 -31
leaf_value=-0.16580888628989307 -0.0036329291677704998 -0.038952284757548569 0.24739966443789904 -0.0020616666777876296 -0.19524140276217616 0.17427869296197929 0.134948660581342 -0.042285942631366709 0.013828803107224728 0.25316473411351242 -0.10160940123147716 -0.30399020601781945 -0.11269653170579064 0.13244944138045667 -0.21504286669280748 0.18837126761120868 0.26204867342667509 -0.28203304340034357 0.012285045582122591 0.053474120920584525 -0.055513635184973799 0.069953255097340974 -0.11314777968502213 0.17941013656214047 -0.21092620108144808 0.106781622062042 -0.18173493901433305 -0.13743370344482062 0.089096096760337709 0.32594359719388749
leaf_weight=5497 6169 7433 4185 9235 4739 3845 7745 16001 3325 5517 8395 5557 12923 4268 9611 6509 6046 4167 6049 16007 4976 5376 4104 18857 11221 17355 3317 13335 4933 3303
leaf_count=5497 6169 7433 4185 9235 4739 3845 7745 16001 3325 5517 8395 5557 12923 4268 9611 6509 6046 4167 6049 16007 4976 5376 4104 18857 11221 17355 3317 13335 4933 3303
internal_value=0 -0.114867 0.140242 -0.0480392 -0.189061 0.0902684 0.208559 -0.0174079 0.117744 0.223598 -0.157365 -0.232311 -0.0916248 0.0528983 -0.174271 0.135314 0.206369 -0.249764 -0.040784 0.0700989 -0.110079 0.0244356 -0.0567509 0.191759 -0.230182 0.119023 -0.126798 -0.152591 0.0587905 0.28042
internal_weight=0 131936 108064 69414 62522 62411 45653 40765 35967 37908 36080 26442 28649 26444 27685 27709 29088 20945 26154 20275 21216 14611 20105 23042 15388 21200 16240 18074 8258 8820
internal_count=240000 131936 108064 69414 62522 62411 45653 40765 35967 37908 36080 26442 28649 26444 27685 27709 29088 20945 26154 20275 21216 14611 20105 23042 15388 21200 16240 18074 8258 8820
is_linear=0
shrinkage=0.1


Tree=18
num_leaves=31
num_cat=0
split_feature=0 0 0 0 1 2 2 0 2 2 1 2 0 2 0 1 1 1 0 1 2 2 1 0 1 1 2 2 1 0
split_gain=314818 50480.8 33405.3 9367.43 5642.55 5078.47 4305.01 3839.76 3662.23 3464.36 3267.57 3163.96 2749.74 2547.91 2457.85 2300.7 2098.49 1993.95 1727.89 1670.42 1530.26 1438.7 1418.06 1394.41 1145.85 1113.58 1110.72 1025.76 1020.6 955.733
threshold=45.500000000000007 70.500000000000014 18.500000000000004 86.500000000000014 1.5000000000000002 7.6500000000000012 8.2500000000000018 57.500000000000007 2.0500000000000003 2.0500000000000003 12.500000000000002 2.1500000000000008 33.500000000000007 7.7500000000000009 2.5000000000000004 -4.4999999999999991 -3.4999999999999996 10.500000000000002 31.500000000000004 12.500000000000002 1.3500000000000003 8.6500000000000004 -1.4999999999999998 97.500000000000014 -5.4999999999999991 6.5000000000000009 8.5500000000000025 1.2500000000000002 -1.0000000180025095e-35 2.5000000000000004
decision_type=2 2 2 2 2 2 2 2 2 2 2 2 2 2 2 2 2 2 2 2 2 2 2 2 2 2 2 2 2 2
left_child=2 5 6 9 13 7 10 19 -6 25 14 28 -10 18 -1 -11 -13 -9 -4 27 -16 -17 -7 26 -22 -3 -18 -2 -5 -8
right_child=1 3 4 11 8 22 29 17 12 15 -12 16 -14 -15 20 21 23 -19 -20 -21 24 -23 -24 -25 -26 -27 -28 -29 -30 -31
leaf_value=-0.25931669527810414 0.064305367420181433 0.15631161642770308 -0.12742410034946491 0.20896742701424917 0.0060122952921481199 -0.063602308409996478 -0.33881706471142964 0.063156945161580852 -0.096356256650944536 0.059818759288631423 -0.12248678665156809 0.1341422850020054 -0.036011051736296512 -0.17279624204945643 -0.12364819964849408 0.13945549127062476 0.20423148134480354 0.12600255288909717 -0.068986017978185474 0.073978135325254088 -0.23545148482895326 0.073408213254910273 0.0062541726625126685 0.26776044557978224 -0.17810311317406563 0.23114712460890396 0.13500682864891475 -0.0018810819352787775 0.29096240310856464 -0.24245471789485698
leaf_weight=4567 2806 4618 9817 2259 8111 4161 1223 16873 17010 6057 8823 5691 13579 5737 4098 20296 12995 7204 10441 5176 4455 3938 9634 2860 15986 3492 2821 14147 4628 6497
leaf_count=4567 2806 4618 9817 2259 8111 4161 1223 16873 17010 6057 8823 5691 13579 5737 4098 20296 12995 7204 10441 5176 4455 3938 9634 2860 15986 3492 2821 14147 4628 6497
internal_value=0 0.105658 -0.12415 0.16357 -0.0779316 0.0384279 -0.189652 0.0543243 -0.0537273 0.130486 -0.175797 0.204219 -0.0695679 -0.113966 -0.191957 0.114945 0.187304 0.0819608 -0.097305 0.0242551 -0.179421 0.128723 -0.0148167 0.203504 -0.190602 0.188534 0.191884 0.00907386 0.264067 -0.25772
internal_weight=0 129656 110344 69655 64695 60001 45649 46206 38700 38401 37929 31254 30589 25995 29106 30291 24367 24077 20258 22129 24539 24234 13795 18676 20441 8110 15816 16953 6887 7720
internal_count=240000 129656 110344 69655 64695 60001 45649 46206 38700 38401 37929 31254 30589 25995 29106 30291 24367 24077 20258 22129 24539 24234 13795 18676 20441 8110 15816 16953 6887 7720
is_linear=0
shrinkage=0.1


Tree=19
num_leaves=31
num_cat=0
split_feature=0 0 0 0 0 0 2 0 1 1 2 1 2 2 1 2 1 2 1 1 2 1 2 2 2 2 1 2 2 1
split_gain=255318 35426.3 32360.5 5730.97 5715.89 4947.08 3852.13 3060.63 2699.29 2637.93 2586.21 2575.8 2360.48 2272.08 2050.25 2026.51 1939.12 1880.98 1820.79 1733.74 1375.38 1262.7 1231.42 1129.38 1129.31 1050.73 1006.04 989.567 912.385 854.115
threshold=48.500000000000007 75.500000000000014 20.500000000000004 62.500000000000007 35.500000000000007 90.500000000000014 2.4500000000000006 4.5000000000000009 -2.4999999999999996 12.500000000000002 1.7500000000000002 -2.4999999999999996 1.5500000000000003 1.9500000000000002 11.500000000000002 7.0500000000000007 -3.4999999999999996 1.7500000000000002 -4.4999999999999991 -3.4999999999999996 8.0500000000000025 9.5000000000000018 8.5500000000000025 8.7500000000000018 7.9500000000000011 8.6500000000000004 14.500000000000002 1.1500000000000001 8.7500000000000018 14.500000000000002
decision_type=2 2 2 2 2 2 2 2 2 2 2 2 2 2 2 2 2 2 2 2 2 2 2 2 2 2 2 2 2 2
left_child=2 3 6 10 9 8 21 -8 24 15 -2 -6 -5 -10 20 27 -9 -13 -12 -14 -7 -1 -20 29 -3 -21 -15 -4 -19 -18
right_child=1 5 4 12 11 14 7 16 13 -11 18 17 19 26 -16 -17 23 28 22 25 -22 -23 -24 -25 -26 -27 -28 -29 -30 -31
leaf_value=-0.13994711886018177 0.081094111428932691 0.10713733746995009 -0.034557982099093623 0.14426147659079924 -0.076026404569826678 0.19171657344521575 -0.23250652580815154 -0.2127652894045006 0.21031073713669893 -0.037833991016456486 -0.042513286493185171 0.050156335755679821 0.022686570965119376 0.12539837048322849 0.24699171189931565 -0.14425012526360756 -0.15298582320481269 -0.015275547866041959 0.032322649281340841 0.093097916508643047 0.11677527880499723 -0.072436925023350654 -0.030665130111551378 -0.20323274656142437 0.021312415777594598 0.029594132856305452 0.17762382924369102 -0.094678112743511414 -0.077034101341208999 -0.1012056619787608
leaf_weight=8400 6016 7641 3294 4988 8343 12806 9013 6734 5323 8378 5541 4110 6136 16327 5775 8016 14557 15956 18270 17065 3028 4134 3739 3545 1918 3075 4765 16215 2814 4078
leaf_count=8400 6016 7641 3294 4988 8343 12806 9013 6734 5323 8378 5541 4110 6136 16327 5775 8016 14557 15956 18270 17065 3028 4134 3739 3545 1918 3075 4765 16215 2814 4078
internal_value=0 0.101088 -0.105237 0.0503883 -0.059753 0.158169 -0.165743 -0.181626 0.135452 -0.0869655 0.0216938 -0.0284616 0.0811956 0.15193 0.195988 -0.10192 -0.165766 -0.0111175 0.00872275 0.0692237 0.177385 -0.117681 0.021622 -0.151496 0.0899167 0.0834021 0.137197 -0.0845271 -0.0245344 -0.141654
internal_weight=0 122413 117587 64830 67126 57583 50461 37927 35974 35903 33566 31223 31264 26415 21609 27525 28914 22880 27550 26276 15834 12534 22009 22180 9559 20140 21092 19509 18770 18635
internal_count=240000 122413 117587 64830 67126 57583 50461 37927 35974 35903 33566 31223 31264 26415 21609 27525 28914 22880 27550 26276 15834 12534 22009 22180 9559 20140 21092 19509 18770 18635
is_linear=0
shrinkage=0.1


Tree=20
num_leaves=31
num_cat=0
split_feature=0 0 0 0 1 1 2 2 2 2 0 1 1 0 2 1 2 1 2 2 0 2 0 2 1 2 2 0 1 1
split_gain=207611 34863.2 20861 6474.6 4264.84 4122.15 3256.59 3241.27 3018.68 2959.75 2413.87 2268.07 1975.35 1891.08 1521.84 1498.08 1427.45 1372.17 1298.95 1282.94 1154.59 1127.95 1040.25 1011.11 977.322 969.402 931.302 854.376 816.168 785.711
threshold=44.500000000000007 70.500000000000014 17.500000000000004 82.500000000000014 -3.4999999999999996 13.500000000000002 1.4500000000000002 6.6500000000000012 5.0500000000000007 8.1500000000000004 30.500000000000004 -2.4999999999999996 7.5000000000000009 56.500000000000007 7.2500000000000009 -3.4999999999999996 1.2500000000000002 12.500000000000002 2.1500000000000008 8.2500000000000018 1.5000000000000002 1.1500000000000001 61.500000000000007 8.7500000000000018 14.500000000000002 2.8500000000000001 8.6500000000000004 2.5000000000000004 -5.4999999999999991 14.500000000000002
decision_type=2 2 2 2 2 2 2 2 2 2 2 2 2 2 2 2 2 2 2 2 2 2 2 2 2 2 2 2 2 2
left_child=2 5 9 12 19 7 -6 13 15 11 26 27 14 -2 -3 -5 -13 23 -7 -4 -18 -17 -9 -10 -12 -14 -8 -1 -15 -22
right_child=1 3 4 8 6 18 10 22 17 -11 24 16 25 28 -16 21 20 -19 -20 -21 29 -23 -24 -25 -26 -27 -28 -29 -30 -31
leaf_value=-0.2540493333577038 0.009059856945773789 0.093111648637293654 -0.10020261034753519 0.13643481107101724 0.0082262487259940394 0.14142743961738169 -0.079258689003648852 -0.037716626665300901 0.13088569148164836 -0.21266802785733391 -0.051562974179545099 -0.074769148668231936 0.17352236710358626 0.015610425255323718 0.026303142085910482 0.24744668179039217 -0.20417514993688354 0.1784959085915313 0.063913259769017225 -0.17771773904225838 -0.14208219393905588 0.18496416347314276 0.015160868584897794 0.071344186531468512 -0.00019508811862091189 0.10982668880047791 -0.13884534317765368 -0.17301123619599398 0.067754320637811602 -0.094288724400545892
leaf_weight=1557 15395 12597 12596 4871 7445 2780 17198 10752 11618 7744 17099 4068 3377 3803 4675 3788 2436 4603 9723 2571 15048 12176 5689 3780 4728 8170 3095 7912 14247 4459
leaf_count=1557 15395 12597 12596 4871 7445 2780 17198 10752 11618 7744 17099 4068 3377 3803 4675 3788 2436 4603 9723 2571 15048 12176 5689 3780 4728 8170 3095 7912 14247 4459
internal_value=0 0.0840975 -0.102862 0.132727 -0.0669412 0.0298042 -0.0527423 0.0169358 0.15834 -0.156657 -0.0635189 -0.144432 0.0964351 0.0348076 0.0750286 0.184978 -0.129177 0.13059 0.0811483 -0.113342 -0.139263 0.19979 -0.0194197 0.116269 -0.0404361 0.128455 -0.0883466 -0.186336 0.056768 -0.131157
internal_weight=0 132044 107956 69655 64732 62389 49565 49886 40836 43224 42120 35480 28819 33445 17272 20835 26011 20001 12503 15167 21943 15964 16441 15398 21827 11547 20293 9469 18050 19507
internal_count=240000 132044 107956 69655 64732 62389 49565 49886 40836 43224 42120 35480 28819 33445 17272 20835 26011 20001 12503 15167 21943 15964 16441 15398 21827 11547 20293 9469 18050 19507
is_linear=0
shrinkage=0.1


Tree=21
num_leaves=31
num_cat=0
split_feature=0 0 0 0 1 0 1 2 1 2 1 2 2 0 2 2 2 2 0 2 1 1 1 0 1 2 0 2 2 2
split_gain=168723 28919.5 16366 4938.2 3772.76 3663.34 2674.88 2450.15 2208.6 2140.15 2130.17 1854.87 1767.87 1673.21 1645.74 1498.32 1354.49 1306.43 1120.85 1065.49 1005.66 970.542 881.071 832.438 788.597 697.813 640.99 621.945 618.534 603.613
threshold=54.500000000000007 23.500000000000004 81.500000000000014 39.500000000000007 8.5000000000000018 6.5000000000000009 3.5000000000000004 8.1500000000000004 3.5000000000000004 4.7500000000000009 13.500000000000002 1.5500000000000003 2.4500000000000006 65.500000000000014 5.8500000000000005 6.8500000000000005 7.8500000000000005 3.1500000000000008 96.500000000000014 6.8500000000000005 -4.4999999999999991 1.5000000000000002 -3.4999999999999996 69.500000000000014 -5.4999999999999991 0.95000000000000007 97.500000000000014 1.1500000000000001 8.9500000000000011 1.1500000000000001
decision_type=2 2 2 2 2 2 2 2 2 2 2 2 2 2 2 2 2 2 2 2 2 2 2 2 2 2 2 2 2 2
left_child=1 5 4 10 7 16 15 13 19 21 14 -6 -8 -2 25 26 22 -10 -14 -7 -11 -5 -1 -13 -15 -3 -4 -26 -22 -23
right_child=2 3 6 9 11 8 12 -9 17 20 -12 23 18 24 -16 -17 -18 -19 -20 -21 28 29 -24 -25 27 -27 -28 -29 -30 -31
leaf_value=-0.20036631545609948 0.027085836594871085 -0.0084620814991957123 0.12446648662892504 -0.011735090991705801 0.15638570870716537 -0.1219398821533899 0.211385861147253 -0.0096874929153776216 -0.05500998802075633 -0.077288500938273691 -0.012440466975715454 0.061996926731251505 0.13614467742684919 0.039130070888984278 -0.099173231526129599 0.073104853246743567 -0.22343061137531481 -0.10770787360719802 0.2046608711721345 -0.17319979303022195 -0.0096957672027002603 0.078482676578820743 -0.13951805078344801 0.10309158975214611 0.13430279746721599 -0.060916563034203799 0.19315647185825913 0.075857802261432822 -0.061146341905880974 0.022802022723158295
leaf_weight=3101 13740 3051 12444 6854 3820 13231 5790 7383 6882 3804 7663 11053 14379 5234 12573 6264 3518 14867 2863 5847 12027 2599 10230 8897 2130 15029 1525 12542 2900 7760
leaf_count=3101 13740 3051 12444 6854 3820 13231 5790 7383 6882 3804 7663 11053 14379 5234 12573 6264 3518 14867 2863 5847 12027 2599 10230 8897 2130 15029 1525 12542 2900 7760
internal_value=0 -0.0758824 0.0926452 -0.0346219 0.0608461 -0.129007 0.140271 0.0424801 -0.112816 -0.00799725 -0.0595983 0.0925474 0.163576 0.0539274 -0.0713874 0.113743 -0.168238 -0.0910328 0.147522 -0.13765 -0.0313887 0.017457 -0.153672 0.0803237 0.0724546 -0.0520649 0.131965 0.0843425 -0.0196915 0.0367719
internal_weight=0 131936 108064 74260 64799 57676 43265 41029 40827 35944 38316 23770 23032 33646 30653 20233 16849 21749 17242 19078 18731 17213 13331 19950 19906 18080 13969 14672 14927 10359
internal_count=240000 131936 108064 74260 64799 57676 43265 41029 40827 35944 38316 23770 23032 33646 30653 20233 16849 21749 17242 19078 18731 17213 13331 19950 19906 18080 13969 14672 14927 10359
is_linear=0
shrinkage=0.1


Tree=22
num_leaves=31
num_cat=0
split_feature=0 0 0 0 1 2 2 1 1 1 1 2 2 2 2 0 0 0 0 1 2 2 1 2 2 2 2 1 2 1
split_gain=136837 24874.6 12484.1 4808.11 3312.21 3089.19 2482.93 2239.94 2231.18 1955.47 1877.51 1803.8 1735.2 1607.34 1394.41 1260.85 1238.62 1238.45 1060.74 939.105 933.544 905.528 811.784 687.278 666.947 663.985 642.592 599.686 595.19 580.091
threshold=55.500000000000007 29.500000000000004 82.500000000000014 13.500000000000002 13.500000000000002 8.0500000000000025 5.9500000000000011 13.500000000000002 -5.4999999999999991 11.500000000000002 -4.4999999999999991 8.3500000000000032 1.2500000000000002 8.4500000000000011 3.9500000000000006 41.500000000000007 69.500000000000014 97.500000000000014 1.5000000000000002 -5.4999999999999991 8.9500000000000011 2.7500000000000004 -2.4999999999999996 1.0500000000000003 1.1500000000000001 1.7500000000000002 1.0500000000000003 14.500000000000002 8.9500000000000011 15.500000000000002
decision_type=2 2 2 2 2 2 2 2 2 2 2 2 2 2 2 2 2 2 2 2 2 2 2 2 2 2 2 2 2 2
left_child=1 3 4 9 6 8 16 11 -3 13 -5 17 -10 18 27 -14 26 19 -1 -4 -8 -6 -7 -21 -20 -9 -2 -12 -16 -17
right_child=2 5 7 10 21 22 20 25 12 -11 14 -13 15 -15 28 29 -18 -19 24 23 -22 -23 -24 -25 -26 -27 -28 -29 -30 -31
leaf_value=-0.19363139822914568 0.08749354845204993 -0.057004375902603516 0.080895949831938166 -0.12692657000053295 0.14496181820143295 -0.10959508950060065 0.031883008127979749 0.23620722629357813 0.046139117664373036 -0.09468758374754363 -0.056923231060463535 0.062907345421956917 -0.029815103381349517 -0.21019134129639025 -0.081092088295267983 0.00052653111572998907 0.085047421475283519 0.18533322007372727 -0.081394771687823428 0.17777335961003726 -0.017251989166808694 0.086390592943615563 -0.050666923578289683 0.12197126790839141 -0.13704270497132987 0.16197541418750777 0.035761122974642005 -0.0023831804848613884 -0.12930468882270718 0.048172352744501601
leaf_weight=2989 2933 8361 5049 7711 3676 3190 15492 1471 6719 8997 9743 5226 16204 3672 15355 16000 14986 3214 2502 2544 5153 9362 8750 16669 15473 6663 13240 2542 3073 3041
leaf_count=2989 2933 8361 5049 7711 3676 3190 15492 1471 6719 8997 9743 5226 16204 3672 15355 16000 14986 3214 2502 2544 5153 9362 8750 16669 15473 6663 13240 2542 3073 3041
internal_value=0 -0.0669754 0.0851291 -0.106978 0.0578532 -0.0206819 0.0465147 0.12844 -0.00983233 -0.134588 -0.0828106 0.116759 -0.000433671 -0.14916 -0.0717346 -0.00931217 0.0643351 0.127002 -0.13847 0.119275 0.0196189 0.102904 -0.0664107 0.12936 -0.129297 0.1754 0.0451429 -0.0456379 -0.0891319 0.00813595
internal_weight=0 134322 105678 72057 64842 62265 51804 40836 50325 33633 38424 32702 41964 24636 30713 35245 31159 27476 20964 24262 20645 13038 11940 19213 17975 8134 16173 12285 18428 19041
internal_count=240000 134322 105678 72057 64842 62265 51804 40836 50325 33633 38424 32702 41964 24636 30713 35245 31159 27476 20964 24262 20645 13038 11940 19213 17975 8134 16173 12285 18428 19041
is_linear=0
shrinkage=0.1


Tree=23
num_leaves=31
num_cat=0
split_feature=0 0 0 0 1 1 2 1 2 2 2 0 2 2 0 2 1 1 0 2 0 1 1 0 2 2 2 2 0 1
split_gain=111592 19084.2 11437.6 3185.78 3026.36 2834.6 2355.92 2011.14 1988.14 1662.95 1531.67 1337.07 1312.53 1240.62 1177.27 998.23 984.926 961.99 887.756 828.524 806.649 784.932 761.149 670.673 606.343 574.46 569.873 519.856 473.885 469.988
threshold=44.500000000000007 73.500000000000014 17.500000000000004 92.500000000000014 1.0000000180025095e-35 7.5000000000000009 3.0500000000000003 -4.4999999999999991 5.8500000000000005 6.9500000000000011 1.5500000000000003 60.500000000000007 2.7500000000000004 8.4500000000000011 1.5000000000000002 1.6500000000000001 -4.4999999999999991 -4.4999999999999991 30.500000000000004 1.0500000000000003 62.500000000000007 13.500000000000002 8.5000000000000018 60.500000000000007 8.8500000000000032 7.0500000000000007 8.9500000000000011 9.0500000000000025 30.500000000000004 -5.4999999999999991
decision_type=2 2 2 2 2 2 2 2 2 2 2 2 2 2 2 2 2 2 2 2 2 2 2 2 2 2 2 2 2 2
left_child=2 4 7 8 13 9 23 25 16 18 -9 -8 -7 20 -12 -5 -3 -10 -4 -18 -2 24 -17 -6 -16 -1 28 -19 -14 -11
right_child=1 3 5 15 6 12 11 10 17 29 14 -13 26 -15 21 22 19 27 -20 -21 -22 -23 -24 -25 -26 -27 -28 -29 -30 -31
leaf_value=-0.14213524905209937 -0.0074511255114183333 0.067102384025309256 -0.070900329850801622 0.19290571695003397 0.055953978157775322 0.013049786274817517 0.0070815926781823751 -0.056114174521135735 0.017627818547419859 -0.12981622283829305 -0.17035328183153609 0.049269867478134659 -0.048026464606706461 -0.053799421534533098 -0.10974347294154221 0.11025864548759896 0.15583371913663574 0.084239053446695369 -0.034765342127930282 0.1055719897420317 0.032292789389914624 -0.07639634575836135 0.15865018033762762 0.1004646970201568 -0.1622684975976193 -0.1992785097279014 -0.080531642604479939 0.039063149851582407 -0.013571758207612512 -0.085002773712719082
leaf_weight=6120 13478 5368 13218 2849 7512 7223 16731 5502 3743 3236 3252 13634 7677 3878 16870 8880 4034 11625 14000 17539 8222 6484 5127 6162 2527 2469 2607 3262 8316 8455
leaf_count=6120 13478 5368 13218 2849 7512 7223 16731 5502 3743 3236 3252 13634 7677 3878 16870 8880 4034 11625 14000 17539 8222 6484 5127 6162 2527 2469 2607 3262 8316 8455
internal_value=0 0.061656 -0.0754132 0.101803 0.0256556 -0.0488152 0.0415454 -0.115246 0.0880637 -0.0658629 -0.104504 0.0260243 -0.0231286 -0.0017026 -0.113643 0.138947 0.105433 0.062946 -0.0523137 0.114971 0.00760761 -0.106517 0.127971 0.0760121 -0.116586 -0.158562 -0.0371778 0.0743402 -0.0301108 -0.0974069
internal_weight=0 132044 107956 62427 69617 64732 44039 43224 45571 38909 34635 30365 25823 25578 29133 16856 26941 18630 27218 21573 21700 25881 14007 13674 19397 8589 18600 14887 15993 11691
internal_count=240000 132044 107956 62427 69617 64732 44039 43224 45571 38909 34635 30365 25823 25578 29133 16856 26941 18630 27218 21573 21700 25881 14007 13674 19397 8589 18600 14887 15993 11691
is_linear=0
shrinkage=0.1


Tree=24
num_leaves=31
num_cat=0
split_feature=0 0 0 0 1 2 1 1 2 1 2 1 0 2 2 1 2 2 2 0 0 2 2 1 0 0 1 1 2 2
split_gain=90463.6 16195 8687.36 3471.86 2381.17 2367.25 1938.29 1752.28 1700.67 1688.21 1395.08 1198.3 1144.73 1139.31 1137.03 1014.17 989.665 841.338 763.758 728.564 689.526 683.634 673.576 613.765 611.84 540.462 540.149 501.237 497.518 467.692
threshold=43.500000000000007 69.500000000000014 17.500000000000004 88.500000000000014 13.500000000000002 1.3500000000000003 -4.4999999999999991 13.500000000000002 8.3500000000000032 6.5000000000000009 7.3500000000000005 -4.4999999999999991 60.500000000000007 6.8500000000000005 1.0500000000000003 -6.4999999999999991 1.7500000000000002 2.8500000000000001 8.8500000000000032 30.500000000000004 97.500000000000014 1.7500000000000002 0.8500000000000002 14.500000000000002 2.5000000000000004 2.5000000000000004 -6.4999999999999991 10.500000000000002 1.4500000000000002 8.8500000000000032
decision_type=2 2 2 2 2 2 2 2 2 2 2 2 2 2 2 2 2 2 2 2 2 2 2 2 2 2 2 2 2 2
left_child=2 5 9 7 8 27 -7 10 14 13 22 -5 18 24 -4 -16 -13 -11 23 -17 29 -6 -3 -8 -1 -15 -24 -2 -9 -18
right_child=1 3 4 11 21 6 12 28 -10 17 -12 16 -14 25 15 19 20 -19 -20 -21 -22 -23 26 -25 -26 -27 -28 -29 -30 -31
leaf_value=-0.14913770484979266 0.049846844242149087 0.11419583375480413 -0.0045779064806139632 0.072792058910786023 0.04361886099055598 -0.028500910920777684 0.0051597203300759054 0.16460017902139487 -0.097338127886107587 -0.047763132071241325 0.02714572327897128 0.17212408379283692 0.041264098596314809 -0.21369517468637036 -0.090713743428149238 -0.061430581628727735 0.11371849919522239 -0.094588919361052737 -0.036168792486159874 -0.030428709217771001 0.15838034382525104 -0.017281359791784245 0.032044718585219727 0.044253668541609559 -0.098153099121557452 -0.14146363217671915 0.072615321478833483 0.10230422655840297 0.099363360475070148 0.060280250470490349
leaf_weight=2823 6024 3287 5473 5252 2249 10831 19374 1377 8021 5390 9457 3835 14875 1240 6087 15216 12315 13318 3584 15106 3142 10217 3933 5066 14160 6293 19815 2611 7740 1889
leaf_count=2823 6024 3287 5473 5252 2249 10831 19374 1377 8021 5390 9457 3835 14875 1240 6087 15216 12315 13318 3584 15106 3142 10217 3933 5066 14160 6293 19815 2611 7740 1889
internal_value=0 0.0544174 -0.0692667 0.0867141 -0.0453884 0.0171094 0.00929899 0.0700018 -0.0551542 -0.103721 0.0602045 0.11555 0.0188426 -0.120985 -0.0470754 -0.0534637 0.126153 -0.0810978 0.00694136 -0.0459859 0.115989 -0.00629431 0.0717687 0.0132632 -0.106628 -0.153354 0.0658963 0.0657086 0.109217 0.106612
internal_weight=0 134407 105593 72042 62369 62365 53730 45609 49903 43224 36492 26433 42899 24516 41882 36409 21181 18708 28024 30322 17346 12466 27035 24440 16983 7533 23748 8635 9117 14204
internal_count=240000 134407 105593 72042 62369 62365 53730 45609 49903 43224 36492 26433 42899 24516 41882 36409 21181 18708 28024 30322 17346 12466 27035 24440 16983 7533 23748 8635 9117 14204
is_linear=0
shrinkage=0.1


Tree=25
num_leaves=31
num_cat=0
split_feature=0 0 0 0 2 1 0 1 2 2 2 1 1 2 1 2 1 1 1 1 2 2 2 2 2 2 1 1 0 2
split_gain=73637.2 13486.2 6996.02 2870.8 1949.27 1892.02 1805.78 1491.82 1448.96 1445.76 1140.16 1120.8 1011.14 992.918 981.844 956.433 794.401 783.428 775.341 658.624 627.249 595.026 544.981 514.003 489.485 486.413 467.164 459.38 442.95 412.095
threshold=55.500000000000007 29.500000000000004 78.500000000000014 9.5000000000000018 4.6500000000000012 14.500000000000002 96.500000000000014 -5.4999999999999991 8.5500000000000025 8.4500000000000011 1.2500000000000002 14.500000000000002 2.5000000000000004 8.5500000000000025 13.500000000000002 0.95000000000000007 15.500000000000002 -4.4999999999999991 -6.4999999999999991 -6.4999999999999991 8.8500000000000032 0.75000000000000011 1.0500000000000003 0.95000000000000007 1.5500000000000003 8.9500000000000011 -5.4999999999999991 -3.4999999999999996 63.500000000000007 1.2500000000000002
decision_type=2 2 2 2 2 2 2 2 2 2 2 2 2 2 2 2 2 2 2 2 2 2 2 2 2 2 2 2 2 2
left_child=1 3 5 13 14 8 9 -5 15 11 -9 19 25 17 21 -2 20 -1 -17 -4 -12 -3 -19 -21 -8 -6 -23 -11 -20 -7
right_child=2 4 6 7 12 29 24 10 -10 27 16 -13 -14 -15 -16 18 -18 22 28 23 -22 26 -24 -25 -26 -27 -28 -29 -30 -31
leaf_value=-0.13775543197135581 0.079769817970001378 0.030106851050404372 0.047862479845305894 -0.10383936812141517 -0.042706700363315156 0.13383902987159224 0.19565425859707383 -0.01287445928883167 -0.014506084785707821 -0.010260714707711047 -0.064175901523005743 0.12845888356781196 -0.016321050641115779 -0.15729475609406937 0.040494300107185868 -0.002962572639335232 -0.028692557930144181 -0.041032304174422607 0.020807454893010762 0.12635966065891707 -0.10841061020492533 -0.042941051836940858 -0.095803065027117787 0.082726754897362142 0.1244059503220729 -0.089644467393418609 -0.0046399745236480718 0.052752979407976089 0.046567590122953695 0.070998652304280471
leaf_weight=4101 4566 3931 4884 8018 11669 1199 1147 5194 6416 1511 25527 6103 18685 3352 5832 5609 5626 2077 10236 3064 3666 4014 14496 22716 6052 2723 15411 4937 19188 8050
leaf_count=4101 4566 3931 4884 8018 11669 1199 1147 5194 6416 1511 25527 6103 18685 3352 5832 5609 5626 2077 10236 3064 3666 4014 14496 22716 6052 2723 15411 4937 19188 8050
internal_value=0 -0.0491317 0.0624488 -0.0785864 -0.0150448 0.0378742 0.0893877 -0.0644694 0.0295787 0.0816631 -0.0565803 0.0893228 -0.0316657 -0.106808 0.00379062 0.0367215 -0.0630999 -0.0986224 0.0311109 0.0815336 -0.0697308 -0.00537429 -0.088939 0.0879126 0.135758 -0.0515874 -0.0125545 0.0379866 0.0376062 0.079145
internal_weight=0 134322 105678 72057 62265 55264 50414 48031 46015 43215 40013 36767 33077 24026 29188 39599 34819 20674 35033 30664 29193 23356 16573 25780 7199 14392 19425 6448 29424 9249
internal_count=240000 134322 105678 72057 62265 55264 50414 48031 46015 43215 40013 36767 33077 24026 29188 39599 34819 20674 35033 30664 29193 23356 16573 25780 7199 14392 19425 6448 29424 9249
is_linear=0
shrinkage=0.1


Tree=26
num_leaves=31
num_cat=0
split_feature=0 0 0 2 1 1 1 2 2 0 1 1 2 0 0 0 0 2 1 2 1 2 2 1 2 2 2 1 1 2
split_gain=60189.7 10736.8 5768.98 2216.04 1748.57 1642.02 1425.46 1234.08 1208.48 1171.68 1097.13 1060.46 916.781 832.561 814.908 694.446 676.313 600.556 543.064 488.908 487.881 466.152 458.433 446.327 429.642 399.829 397.5 379.399 363.643 361.117
threshold=43.500000000000007 75.500000000000014 18.500000000000004 4.6500000000000012 11.500000000000002 -4.4999999999999991 13.500000000000002 4.0500000000000007 6.6500000000000012 1.5000000000000002 -2.4999999999999996 -5.4999999999999991 5.4500000000000011 61.500000000000007 62.500000000000007 96.500000000000014 87.500000000000014 9.1500000000000004 14.500000000000002 1.5500000000000003 15.500000000000002 8.5500000000000025 9.1500000000000004 -5.4999999999999991 0.8500000000000002 1.4500000000000002 0.8500000000000002 -6.4999999999999991 15.500000000000002 0.8500000000000002
decision_type=2 2 2 2 2 2 2 2 2 2 2 2 2 2 2 2 2 2 2 2 2 2 2 2 2 2 2 2 2 2
left_child=2 3 6 10 8 21 9 18 16 -1 -2 -5 24 26 22 19 -3 20 -7 -6 -9 -4 28 -10 -11 -8 -12 -14 -13 -15
right_child=1 4 5 11 15 7 25 17 23 12 13 14 27 29 -16 -17 -18 -19 -20 -21 -22 -23 -24 -25 -26 -27 -28 -29 -30 -31
leaf_value=-0.14437742049805821 0.0090537675459100696 0.062983884478537533 -0.061236433900388069 -0.032000383806283748 0.1416340438523028 -0.017065212744397311 0.0025881355611488406 -0.041713751685359735 0.0094517564655992124 -0.035690685383123796 0.06678481888300207 -0.0016680956409131219 -0.14020678920247059 0.10484793800050798 0.029936091554477892 0.16182211339626951 0.093880051249916718 -0.077725678458425818 0.023941896761936664 0.089506863052414232 -0.0038736326496024796 -0.11809199835064872 -0.037380021032683307 0.052147281586013533 -0.077638497138796531 -0.056617168041909333 0.024869876938975535 -0.097278571280320442 0.038116886563251018 0.059931751717363119
leaf_weight=3840 9646 14195 10331 6842 2143 15550 1336 20338 3169 2914 2785 14304 2476 2208 13738 1945 14145 3880 4076 11218 4093 1676 3049 10768 15064 7801 12061 12218 2737 9454
leaf_count=3840 9646 14195 10331 6842 2143 15550 1336 20338 3169 2914 2785 14304 2476 2208 13738 1945 14145 3880 4076 11218 4093 1676 3049 10768 15064 7801 12061 12218 2737 9454
internal_value=0 0.0443876 -0.0565001 0.0199182 0.0770335 -0.0361027 -0.0832849 -0.0278195 0.0665483 -0.0921248 0.0379317 0.00390482 -0.0859834 0.0484401 0.011167 0.105995 0.0784047 -0.0411785 -0.00854871 0.0978677 -0.0353743 -0.0691726 -0.00166781 0.0424392 -0.0708393 -0.0479602 0.0327328 -0.104512 0.00472188 0.0684359
internal_weight=0 134407 105593 76824 57583 59944 45649 47937 42277 36512 36154 40670 32672 26508 33828 15306 28340 28311 19626 13361 24431 12007 20090 13937 17978 9137 14846 14694 17041 11662
internal_count=240000 134407 105593 76824 57583 59944 45649 47937 42277 36512 36154 40670 32672 26508 33828 15306 28340 28311 19626 13361 24431 12007 20090 13937 17978 9137 14846 14694 17041 11662
is_linear=0
shrinkage=0.1


Tree=27
num_leaves=31
num_cat=0
split_feature=0 0 0 1 1 0 2 2 2 1 0 1 2 0 0 2 2 1 1 1 2 1 2 1 2 1 2 0 2 0
split_gain=48965.4 7573.76 5894.19 1794.92 1652.75 1430.1 1409.46 1152.14 1150.99 1134.45 1009.62 909.491 902.144 697.62 663.863 632.707 605.009 509.257 444.161 431.865 397.317 396.863 396.345 377.632 356.775 347.188 321.799 318.878 315.971 311.162
threshold=51.500000000000007 22.500000000000004 82.500000000000014 14.500000000000002 11.500000000000002 2.5000000000000004 8.7500000000000018 1.9500000000000002 6.1500000000000012 14.500000000000002 63.500000000000007 -3.4999999999999996 8.5500000000000025 37.500000000000007 97.500000000000014 2.4500000000000006 1.2500000000000002 15.500000000000002 -6.4999999999999991 -6.4999999999999991 1.8500000000000003 -6.4999999999999991 9.0500000000000025 -7.4999999999999991 8.0500000000000025 12.500000000000002 0.75000000000000011 35.500000000000007 8.7500000000000018 34.500000000000007
decision_type=2 2 2 2 2 2 2 2 2 2 2 2 2 2 2 2 2 2 2 2 2 2 2 2 2 2 2 2 2 2
left_child=1 5 3 6 8 24 10 25 13 12 21 28 14 -3 18 -6 -12 22 -4 -10 -5 -2 -13 -18 -1 -7 -20 -17 -9 -21
right_child=2 4 9 20 15 7 -8 11 19 -11 16 17 -14 -15 -16 27 23 -19 26 29 -22 -23 -24 -25 -26 -27 -28 -29 -30 -31
leaf_value=-0.10191361188404024 -0.019645384707514854 -0.033333274500108673 0.041128707087668366 0.10168002241042806 0.036047225089390733 -0.044094079773320645 -0.017688443927004204 -0.092567337581821618 -0.081365973911165013 0.11497312662302434 0.072009467007157477 -0.065564323730950266 0.029787876760722316 -0.0035774450734078846 0.11799289883138001 -0.023381043196678709 0.0029206840116455966 -0.035594883638069556 0.11464860590205748 -0.059532699975479247 0.056227323589057389 0.017711498325178297 -0.1059331799227826 0.038310114448255078 -0.15879961301700585 0.0013278041031624579 0.072981406199503718 0.0070771453106035194 -0.14544711766602858 -0.031078526426679066
leaf_weight=5805 3387 16307 4130 2378 4650 7333 7393 7677 3562 6753 4926 21643 4772 15245 3433 6226 3427 5187 2046 6548 10055 17732 2740 25095 1361 2184 19702 7674 1325 9304
leaf_count=5805 3387 16307 4130 2378 4650 7333 7393 7677 3562 6753 4926 21643 4772 15245 3433 6226 3427 5187 2046 6548 10055 17732 2740 25095 1361 2184 19702 7674 1325 9304
internal_value=0 -0.0434073 0.0470018 0.0302452 -0.0214418 -0.0710421 0.0232871 -0.0648318 -0.0307441 0.0775282 0.0288387 -0.0725203 0.0701091 -0.0189561 0.0766737 0.0041164 0.0396472 -0.0640479 0.0711922 -0.0499021 0.0649208 0.0117203 -0.0701007 0.034058 -0.112718 -0.0336705 0.0769014 -0.00656549 -0.100351 -0.0428321
internal_weight=0 124771 115229 74393 69516 55255 61960 48089 50966 40836 54567 38572 34083 31552 29311 18550 33448 29570 25878 19414 12433 21119 24383 28522 7166 9517 21748 13900 9002 15852
internal_count=240000 124771 115229 74393 69516 55255 61960 48089 50966 40836 54567 38572 34083 31552 29311 18550 33448 29570 25878 19414 12433 21119 24383 28522 7166 9517 21748 13900 9002 15852
is_linear=0
shrinkage=0.1


Tree=28
num_leaves=31
num_cat=0
split_feature=0 0 0 0 1 2 2 1 1 2 2 2 1 2 2 1 0 2 1 2 1 1 1 2 0 1 0 1 2 1
split_gain=39829.6 7851.93 3363.68 1744.82 1401.98 1279.97 1223.04 1044.7 961.654 923.178 749.169 723.73 686.576 670.069 657.08 530.497 479.131 461.859 457.93 403.397 340.675 336.775 319.122 310.721 300.234 296.846 291.149 282.251 272.203 256.544
threshold=41.500000000000007 69.500000000000014 16.500000000000004 94.500000000000014 7.5000000000000009 4.4500000000000011 1.3500000000000003 -5.4999999999999991 -5.4999999999999991 6.8500000000000005 3.2500000000000004 2.6500000000000008 7.5000000000000009 9.1500000000000004 8.8500000000000032 15.500000000000002 1.5000000000000002 2.4500000000000006 15.500000000000002 0.75000000000000011 16.500000000000004 -7.4999999999999991 2.5000000000000004 9.1500000000000004 2.5000000000000004 -6.4999999999999991 30.500000000000004 14.500000000000002 9.2500000000000018 15.500000000000002
decision_type=2 2 2 2 2 2 2 2 2 2 2 2 2 2 2 2 2 2 2 2 2 2 2 2 2 2 2 2 2 2
left_child=2 4 8 5 9 12 -4 -8 24 19 27 -6 -3 18 15 26 -12 -5 25 -2 -13 -21 -19 29 -1 -7 -9 -10 -11 -18
right_child=1 3 6 17 11 13 7 14 10 28 16 20 -14 -15 -16 -17 23 22 -20 21 -22 -23 -24 -25 -26 -27 -28 -29 -30 -31
leaf_value=-0.15037737372989754 0.042162208994716517 0.053740356924718007 0.0026305839296463761 0.12659533177706003 0.054675822895027794 0.012395843913260209 -0.070403227132302695 -0.041157270055205065 -0.049862454795786354 -0.016243850171981575 -0.11322993249011769 0.010133114590469646 0.086232076471863608 0.0028288183630721568 -0.064403169999108945 -0.00014854672403639339 -0.068944831383682681 0.059768588127829571 0.075834473751552972 -0.021908513178234317 0.040532950899344916 0.0093886881166010665 0.097712662988040599 -0.101877555494858 -0.094768554711983574 0.042980244482543464 -0.021760917882229152 -0.009995602842170985 -0.051365858636455666 -0.036198721164845647
leaf_weight=1174 3146 16261 8380 2974 7279 3749 8587 17618 9007 9694 2686 14702 10838 4792 5519 5983 14902 3934 3746 4132 4920 20476 5077 2421 5612 20671 13801 2212 2857 2850
leaf_count=1174 3146 16261 8380 2974 7279 3749 8587 17618 9007 9694 2686 14702 10838 4792 5519 5983 14902 3934 3746 4132 4920 20476 5077 2421 5612 20671 13801 2212 2857 2850
internal_value=0 0.0346521 -0.0478922 0.0575874 0.0100664 0.0506353 -0.032799 -0.0385632 -0.070012 -0.00173331 -0.0631664 0.0277456 0.0667351 0.0373975 -0.0321931 -0.0274402 -0.0735537 0.0924248 0.0432789 0.00844416 0.0177555 0.00413349 0.0811471 -0.0682708 -0.104389 0.0382849 -0.0326373 -0.0420021 -0.0242387 -0.0636876
internal_weight=0 139248 100752 72042 67206 60057 59888 51508 40864 40305 34078 26901 27099 32958 42921 37402 22859 11985 28166 27754 19622 24608 9011 20173 6786 24420 31419 11219 12551 17752
internal_count=240000 139248 100752 72042 67206 60057 59888 51508 40864 40305 34078 26901 27099 32958 42921 37402 22859 11985 28166 27754 19622 24608 9011 20173 6786 24420 31419 11219 12551 17752
is_linear=0
shrinkage=0.1


Tree=29
num_leaves=31
num_cat=0
split_feature=0 0 0 1 2 0 1 2 2 1 1 1 2 2 1 0 1 2 2 1 2 2 2 2 0 0 1 2 0 1
split_gain=32650.5 6006.86 3204.83 1252.3 1244.08 1204.61 1051.61 1034.48 841.939 802.61 701.562 632.404 580.57 547.508 467.109 462.177 458.633 448.517 439.344 380.05 354.356 344.474 325.132 314.008 268.719 268.613 263.454 259.843 238.619 220.429
threshold=55.500000000000007 25.500000000000004 84.500000000000014 -3.4999999999999996 1.0500000000000003 5.5000000000000009 -4.4999999999999991 3.1500000000000008 0.95000000000000007 1.0000000180025095e-35 -6.4999999999999991 16.500000000000004 3.3500000000000001 9.0500000000000025 16.500000000000004 37.500000000000007 1.5000000000000002 8.6500000000000004 9.0500000000000025 16.500000000000004 0.65000000000000002 9.2500000000000018 8.1500000000000004 8.7500000000000018 97.500000000000014 97.500000000000014 12.500000000000002 7.1500000000000012 72.500000000000014 15.500000000000002
decision_type=2 2 2 2 2 2 2 2 2 2 2 2 2 2 2 2 2 2 2 2 2 2 2 2 2 2 2 2 2 2
left_child=1 5 3 17 26 16 23 20 -7 22 -10 13 25 15 21 -8 27 -2 19 -12 -5 28 -4 -6 -14 -11 -3 -1 -9 -22
right_child=2 4 9 7 6 8 11 14 10 12 18 -13 24 -15 -16 -17 -18 -19 -20 -21 29 -23 -24 -25 -26 -27 -28 -29 -30 -31
leaf_value=-0.089389690373159025 0.011171939347443866 0.014376059990053118 0.053559923696993174 0.084021613649333193 -0.036996023547464729 -0.007797710898013995 -0.024818727140423415 0.018281555668929146 -0.08458097277396652 0.091914923053453307 -0.047381750616176027 0.018222995439825071 0.060422863207630212 -0.048197114907751887 0.056182207995293588 -0.0029098441520749524 -0.066179996134465555 -0.038176710491362287 -0.079499074423966143 -0.014220068585611811 0.043237737395201307 -0.0084538434180179336 0.012873264018623258 -0.082710498915202879 0.099796998618602042 0.14604923061668368 0.057435993278109825 -0.13675932353159348 0.036936266139749277 0.076960667991277709
leaf_weight=4158 14120 5977 10813 3712 11092 4748 16015 16563 5782 6735 29877 6404 13041 4564 4726 24146 8665 2118 3779 3908 11108 3233 2400 1738 1999 1061 1864 1605 11701 2348
leaf_count=4158 14120 5977 10813 3712 11092 4748 16015 16563 5782 6735 29877 6404 13041 4564 4726 24146 8665 2118 3779 3908 11108 3233 2400 1738 1999 1061 1864 1605 11701 2348
internal_value=0 -0.0327158 0.0415834 0.0290531 -0.0129823 -0.0553777 -0.0175912 0.036449 -0.0477751 0.0657858 -0.0521541 -0.0111679 0.0771358 -0.0153763 0.0268662 -0.0116464 -0.0807202 0.00473516 -0.0471628 -0.0435459 0.056668 0.0224675 0.0461696 -0.0431887 0.0656562 0.0992824 0.0246125 -0.102582 0.0260044 0.0491222
internal_weight=0 134322 105678 69629 71800 62522 63959 53391 48094 36049 43346 51129 22836 44725 36223 40161 14428 16238 37564 33785 17168 31497 13213 12830 15040 7796 7841 5763 28264 13456
internal_count=240000 134322 105678 69629 71800 62522 63959 53391 48094 36049 43346 51129 22836 44725 36223 40161 14428 16238 37564 33785 17168 31497 13213 12830 15040 7796 7841 5763 28264 13456
is_linear=0
shrinkage=0.1


Tree=30
num_leaves=31
num_cat=0
split_feature=0 0 0 1 2 2 2 1 1 0 2 2 2 2 0 0 1 1 0 2 0 1 1 1 1 2 2 1 1 1
split_gain=26571.9 3880.72 3454.55 1062.48 1040.35 978.315 922.66 868.901 824.214 604.503 594.692 535.904 531.896 473.302 436.713 415.409 412.3 347.638 294.297 285.995 275.876 270.59 265.343 246.52 245.032 241.308 230.889 205.138 202.622 202.503
threshold=48.500000000000007 76.500000000000014 21.500000000000004 3.5000000000000004 8.4500000000000011 1.2500000000000002 6.3500000000000005 15.500000000000002 -5.4999999999999991 94.500000000000014 3.6500000000000008 0.75000000000000011 1.0500000000000003 6.6500000000000012 3.5000000000000004 61.500000000000007 -6.4999999999999991 16.500000000000004 1.5000000000000002 8.9500000000000011 96.500000000000014 2.5000000000000004 -7.4999999999999991 -5.4999999999999991 16.500000000000004 9.2500000000000018 0.65000000000000002 15.500000000000002 16.500000000000004 -7.4999999999999991
decision_type=2 2 2 2 2 2 2 2 2 2 2 2 2 2 2 2 2 2 2 2 2 2 2 2 2 2 2 2 2 2
left_child=2 4 6 13 7 20 11 12 -7 17 26 -1 -2 22 -8 29 -13 19 -18 -10 -3 -16 -4 -6 -20 28 -5 -11 -12 -14
right_child=1 5 3 10 23 8 14 -9 9 27 25 16 15 -15 21 -17 18 -19 24 -21 -22 -23 -24 -25 -26 -27 -28 -29 -30 -31
leaf_value=-0.0094561727411499371 0.043936287549358854 0.079053505661873844 -0.04541477197013527 0.038611413248250757 -0.047421679864514309 0.017782954186786128 -0.10280562675493055 0.053159601968743656 0.046266587288590011 0.069596986762487517 -0.017728863718321792 -0.077835076411962814 -0.025393295446351639 -0.049877687924282037 -0.078583765985965018 0.022023916460606762 -0.076942563466090935 0.075099810568407949 -0.04344345770036432 0.014295680698690416 0.13734949521496573 -0.051941532696874432 -0.017383145400916199 -0.0060143509590523288 -0.011431520797098187 -0.046096622313416602 0.0042148867448761722 0.11152552579743474 0.0083482339482401965 0.0060062944814146596
leaf_weight=4170 6334 6293 4284 2407 1738 7991 3440 7612 24365 7297 15603 3947 2323 10040 6702 23185 2340 3737 20722 3161 932 8841 15947 8324 2703 2445 10313 1389 3683 17732
leaf_count=4170 6334 6293 4284 2407 1738 7991 3440 7612 24365 7297 15603 3947 2323 10040 6702 23185 2340 3737 20722 3161 932 8841 15947 8324 2703 2445 10313 1389 3683 17732
internal_value=0 0.0326116 -0.03395 -0.0184592 0.0164853 0.05227 -0.0529152 0.0217026 0.0471002 0.0529645 -0.00644908 -0.0430266 0.0168724 -0.0321277 -0.070565 0.0129079 -0.0477381 0.0464806 -0.0431275 0.0425951 0.0865735 -0.0634294 -0.023319 -0.0131666 -0.0397496 -0.016501 0.0107237 0.0763019 -0.012749 0.00236923
internal_weight=0 122413 117587 64722 67248 55165 52865 57186 47940 39949 34451 33882 49574 30271 18983 43240 29712 31263 25765 27526 7225 15543 20231 10062 23425 21731 12720 8686 19286 20055
internal_count=240000 122413 117587 64722 67248 55165 52865 57186 47940 39949 34451 33882 49574 30271 18983 43240 29712 31263 25765 27526 7225 15543 20231 10062 23425 21731 12720 8686 19286 20055
is_linear=0
shrinkage=0.1


Tree=31
num_leaves=31
num_cat=0
split_feature=0 0 0 0 2 2 1 1 1 2 2 1 1 2 0 2 2 0 2 1 2 1 1 1 2 1 1 0 2 1
split_gain=21710.2 4255.71 1895.49 1246.97 883.959 768.637 746.945 695.672 600.141 564.224 554.784 510.941 417.15 361.987 346.687 321.678 300.573 299.559 293.307 283.829 281.117 273.334 250.322 225.289 213.615 210.253 197.847 184.817 183.989 182.104
threshold=41.500000000000007 65.500000000000014 11.500000000000002 88.500000000000014 7.7500000000000009 8.3500000000000032 1.0000000180025095e-35 7.5000000000000009 6.5000000000000009 3.2500000000000004 8.6500000000000004 13.500000000000002 13.500000000000002 6.8500000000000005 98.500000000000014 0.65000000000000002 7.8500000000000005 1.0000000180025095e-35 0.75000000000000011 -7.4999999999999991 0.95000000000000007 -2.4999999999999996 -7.4999999999999991 -7.4999999999999991 0.95000000000000007 16.500000000000004 -5.4999999999999991 33.500000000000007 0.65000000000000002 17.500000000000004
decision_type=2 2 2 2 2 2 2 2 2 2 2 2 2 2 2 2 2 2 2 2 2 2 2 2 2 2 2 2 2 2
left_child=2 5 10 6 7 8 13 15 22 -8 12 14 17 -3 16 -4 28 -1 -9 -17 -10 -6 -2 -19 -24 -11 -7 -21 -5 -20
right_child=1 3 4 11 21 26 9 18 20 25 -12 -13 -14 -15 -16 19 -18 23 29 27 -22 -23 24 -25 -26 -27 -28 -29 -30 -31
leaf_value=-0.098485172759343778 -0.020599180347400946 0.025396056209881942 0.0013199081608959119 0.08855280539386895 -0.069341810254891639 -0.05389197522008965 0.05866088096432448 0.026852112345089541 0.05404206409769579 0.027543654229961707 -0.092922169424326795 0.085904883809760607 -0.025757309557735444 -0.0035052374291579987 0.091853141924610679 -0.054458002188173905 0.022879301140839345 -0.083749587451750249 -0.015235118064329626 -0.033703735153481663 0.018283240156163196 -0.039617918150295722 0.031265291570429239 -0.050227777911534224 0.0009431606870958717 0.053625584426305523 -0.015002447250857795 -0.014465826460325027 0.050120565130007927 0.010265479747831575
leaf_weight=1681 4831 14023 3019 1369 4213 1577 11557 2288 2494 19668 3744 5297 4984 6272 1906 5090 4035 2289 16641 18846 18553 11645 2631 16151 19868 3667 7674 6794 13826 3367
leaf_count=1681 4831 14023 3019 1369 4213 1577 11557 2288 2494 19668 3744 5297 4984 6272 1906 5090 4035 2289 16641 18846 18553 11645 2631 16151 19868 3667 7674 6794 13826 3367
internal_value=0 0.0255834 -0.0353585 0.040273 -0.0266704 0.00477817 0.0317187 -0.0207725 0.00982849 0.0405915 -0.0570127 0.0581328 -0.0516574 0.0164644 0.0511727 -0.0298281 0.0471406 -0.0580729 -0.00706522 -0.0328881 0.0225205 -0.0475147 5.42649e-05 -0.0543889 0.00448899 0.0316423 -0.0216319 -0.0286061 0.0535831 -0.0109438
internal_weight=0 139248 100752 81620 71903 57628 55187 56045 48377 34892 28849 26433 25105 20295 21136 33749 19230 20121 22296 30730 21047 15858 27330 18440 22499 23335 9251 25640 15195 20008
internal_count=240000 139248 100752 81620 71903 57628 55187 56045 48377 34892 28849 26433 25105 20295 21136 33749 19230 20121 22296 30730 21047 15858 27330 18440 22499 23335 9251 25640 15195 20008
is_linear=0
shrinkage=0.1


Tree=32
num_leaves=31
num_cat=0
split_feature=0 0 0 2 1 1 2 2 1 0 2 1 2 0 2 0 2 1 1 1 1 1 2 2 2 1 1 0 1 0
split_gain=17687.6 3806.71 1566.01 1020.62 785.206 724.247 637.969 595.354 526.063 460.915 452.997 450.158 397.54 360.072 351.524 350.412 321.014 316.574 274.154 246.594 243.971 222.891 201.041 188.507 187.688 174.222 173.658 166.092 165.243 147.493
threshold=57.500000000000007 33.500000000000007 82.500000000000014 8.6500000000000004 3.5000000000000004 9.5000000000000018 1.5500000000000003 8.9500000000000011 15.500000000000002 4.5000000000000009 6.5500000000000007 14.500000000000002 0.8500000000000002 10.500000000000002 9.2500000000000018 97.500000000000014 1.1500000000000001 -4.4999999999999991 -7.4999999999999991 -7.4999999999999991 -8.4999999999999982 -7.4999999999999991 0.55000000000000016 0.65000000000000002 0.65000000000000002 17.500000000000004 -7.4999999999999991 1.5000000000000002 15.500000000000002 97.500000000000014
decision_type=2 2 2 2 2 2 2 2 2 2 2 2 2 2 2 2 2 2 2 2 2 2 2 2 2 2 2 2 2 2
left_child=1 3 5 4 9 10 28 8 15 -1 21 14 -6 -14 19 18 -7 -5 -4 -8 -11 -2 -23 -20 -22 -18 -12 -19 -3 -10
right_child=2 6 7 17 12 16 11 -9 29 20 26 -13 13 -15 -16 -17 25 27 23 -21 24 22 -24 -25 -26 -27 -28 -29 -30 -31
leaf_value=-0.072320375558544578 -0.00032496413801523473 0.015468804494351319 0.015096474481819675 -0.10082676378606553 0.0075831428908078938 0.071488254818762018 -0.031517373395725051 0.010748839403025658 0.075239191234624553 -0.061823366199165744 -0.027764517100584536 0.013669147775868482 -0.041139104937882788 -0.01914504320076027 -0.043125556094841637 0.075087200350521577 0.027495765172296429 -0.11283581226800138 0.075820617149035471 -0.0064376164179265356 -0.0053674717059958178 0.055630963973872884 0.022369506755249201 0.043518534065041151 -0.037829692161881728 0.052358376676464861 0.0037679583236241068 -0.053865783445158577 0.054578397303154641 0.12916521030923597
leaf_weight=4871 3991 7879 3230 2091 3859 2395 4458 4081 4301 4026 2059 8008 11024 22918 3386 3740 14093 508 1961 32513 1935 1994 20495 22948 22389 3523 11509 7988 1252 575
leaf_count=4871 3991 7879 3230 2091 3859 2395 4458 4081 4301 4026 2059 8008 11024 22918 3386 3740 14093 508 1961 32513 1935 1994 20495 22948 22389 3523 11509 7988 1252 575
internal_value=0 -0.0231202 0.0318761 -0.0370055 -0.0326877 0.0216031 -0.00341172 0.0469849 0.0510083 -0.0439038 0.0138407 -0.00798865 -0.0228306 -0.0262885 -0.0122862 0.0463294 0.0371381 -0.0659705 0.0425072 -0.00946176 -0.0390214 0.0214537 0.0253187 0.0460616 -0.0352473 0.032468 -0.00101722 -0.0573918 0.0208313 0.0815984
internal_weight=0 139105 100895 81609 71022 60059 57496 40836 36755 33221 40048 48365 37801 33942 40357 31879 20011 10587 28139 36971 28350 26480 22489 24909 24324 17616 13568 8496 9131 4876
internal_count=240000 139105 100895 81609 71022 60059 57496 40836 36755 33221 40048 48365 37801 33942 40357 31879 20011 10587 28139 36971 28350 26480 22489 24909 24324 17616 13568 8496 9131 4876
is_linear=0
shrinkage=0.1


Tree=33
num_leaves=31
num_cat=0
split_feature=0 0 0 1 2 2 2 1 2 2 1 1 0 2 2 0 1 0 1 2 2 2 1 1 1 0 2 1 1 1
split_gain=14363.4 2909.25 1316.85 736.686 727.271 589.032 577.943 489.577 414.675 412.616 354.332 335.821 330.079 317.909 308.08 301.887 300.766 242.061 227.405 224.79 205.791 194.073 189.554 179.357 166.693 159.546 158.063 154.651 149.707 146.142
threshold=41.500000000000007 72.500000000000014 15.500000000000002 -1.4999999999999998 3.7500000000000004 2.4500000000000006 4.6500000000000012 14.500000000000002 8.9500000000000011 9.3500000000000032 -1.0000000180025095e-35 12.500000000000002 92.500000000000014 8.8500000000000032 9.3500000000000032 1.0000000180025095e-35 15.500000000000002 96.500000000000014 -6.4999999999999991 1.0500000000000003 0.55000000000000016 0.55000000000000016 -7.4999999999999991 -8.4999999999999982 -8.4999999999999982 61.500000000000007 9.3500000000000032 14.500000000000002 15.500000000000002 -6.4999999999999991
decision_type=2 2 2 2 2 2 2 2 2 2 2 2 2 2 2 2 2 2 2 2 2 2 2 2 2 2 2 2 2 2
left_child=2 4 7 13 10 17 16 8 15 11 -2 23 26 24 18 -1 21 28 -8 -17 -12 -4 -21 -6 -3 -25 -7 -20 -5 -23
right_child=1 3 6 5 9 12 14 -9 -10 -11 20 -13 -14 -15 -16 19 -18 -19 27 22 -22 29 -24 25 -26 -27 -28 -29 -30 -31
